the 0.010238 0.013895 0.362118 -0.280102 0.341855 -0.038814 -0.361218 0.632007 0.063718 -0.582837 -0.779136 0.434714 -0.849285 -0.602643 0.005810 0.418565 -0.077898 -0.087394 0.397215 -0.864293 0.264412 0.368972 0.556698 -0.092325 0.081525 1.054280 0.486230 0.139459 -0.223038 -0.869194 0.571615 0.693065 0.222540 0.597512 0.301195 -0.133856 0.405248 -0.260553 -0.186401 0.834582 0.648441 -0.069544 -0.179135 0.521844 0.110190 0.398512 -0.036428 -0.488011 -0.037362 -0.648202 -0.201900 -0.915121 0.312092 0.133590 -0.391077 0.145364 -0.585547 -0.416737 0.258240 -0.042501 0.662647 -1.012621 0.914169 -0.343629 -0.129410 -0.100495 -0.077787 -0.709098 0.410661 0.634033 0.551949 -0.341728 0.112346 -0.456578 0.292430 -0.560182 -0.132344 0.085285 -0.332522 0.129203 -0.209932 0.228244 -0.273641 -0.090820 0.159832 0.145716 0.427379 0.246969 0.058636 0.880069 0.518521 0.150263 -0.988101 -0.387221 0.461693 0.094084 0.324646 -0.229971 -0.043787 0.139896
to -0.217996 0.259095 0.226828 0.181850 -0.586402 0.136474 -0.067321 -0.572659 -0.376679 -0.384707 -0.510281 -0.199589 0.330006 -0.201416 -0.414463 -0.042889 0.220882 -0.232427 0.310193 -0.744203 0.507772 0.208624 -0.409576 -0.082697 -0.510390 0.232679 0.145400 -0.461826 -0.629066 -0.286112 0.902673 0.793439 -0.065579 1.290993 0.298608 -0.518962 0.309218 -0.433450 0.054801 0.387378 0.753903 0.009311 -0.232288 0.346010 -0.218972 0.411940 -0.251024 -0.401711 0.429027 0.013492 -0.283918 0.222875 -0.075085 0.242275 0.003412 0.322599 -0.885830 0.142217 -0.082280 -0.136606 0.056414 -0.511638 -0.452326 0.057045 0.042422 0.303386 0.449065 -0.349526 0.442934 0.683800 0.247331 -0.998605 0.056424 -0.279211 0.106378 -0.376805 -0.310852 0.147731 0.156301 -0.319879 -0.321973 0.371779 0.472720 -0.080098 0.144287 0.409227 -0.335801 -0.789540 -0.236293 -0.392187 -0.010016 -0.117218 -1.045521 -0.727073 0.625440 0.279259 0.439086 -0.122305 0.339692 -0.345274
of -0.363102 -0.077972 0.338466 -0.120541 0.170857 0.012365 -0.028716 0.402912 -0.039263 -0.357139 -0.405015 0.290146 -0.500429 -0.289202 -0.197852 0.438493 0.244957 -0.141315 0.758947 -0.344017 0.051485 0.043564 0.142129 -0.357465 0.149937 0.692465 -0.160041 0.350158 -0.377476 -0.746952 0.651975 0.554845 0.167037 -0.029719 0.597898 0.029788 0.105670 -0.664113 0.025427 0.205310 0.884787 -0.395047 -0.019035 0.126865 0.498485 0.205485 0.107041 -0.927820 -0.094446 -0.582072 0.147013 -0.738662 0.438386 0.104391 0.036056 0.248623 -0.524566 -0.336761 -0.011135 -0.225481 0.671936 -0.623184 0.753731 -0.305885 -0.415338 -0.289061 0.809686 -0.227129 0.446819 0.324907 0.138567 -0.522714 -0.058688 -0.274812 -0.438327 -0.656037 -0.327055 0.098207 0.004328 0.151281 -0.045667 -0.351984 0.120620 -0.016712 0.191158 0.253150 0.294841 0.357794 -0.155018 0.411543 0.492207 0.010399 -0.428960 -0.031078 0.605695 0.454666 -0.278151 -0.302249 0.197043 -0.558279
and -0.149573 -0.159055 0.120214 0.177224 -0.071648 0.044282 -0.286468 -0.016845 -0.075861 -0.356228 -0.386093 -0.119212 -0.118858 -0.370329 -0.241301 0.245152 0.273290 -0.158860 0.359657 -0.514123 0.277644 0.235034 -0.038694 -0.511899 0.053457 0.240071 -0.137523 0.003816 -0.493771 -0.238132 0.573368 0.744525 0.327781 0.269232 0.590605 -0.425624 0.047009 -0.476224 -0.093938 0.303012 0.553180 0.115459 -0.040057 0.392129 0.172278 0.426132 -0.293645 -0.647033 0.065404 -0.458105 -0.148896 -0.329242 0.098656 0.198250 -0.090473 0.526797 -0.906142 -0.165688 0.084090 -0.134521 0.392160 -0.430719 0.315272 0.105312 -0.282798 -0.148632 0.655029 -0.174965 0.555867 0.509007 0.176152 -0.439286 0.044867 -0.139049 -0.094219 -0.483442 -0.294573 0.184418 0.282613 0.019054 -0.331234 0.041584 -0.115805 -0.263085 0.321270 0.486441 0.088520 0.161057 -0.023692 0.085875 0.240772 -0.341276 -0.646876 -0.196964 0.038999 0.092474 -0.228150 -0.143981 0.471039 -0.298009
a -0.090425 0.126361 0.246301 -0.037809 -0.319792 -0.006144 0.303132 -0.287887 -0.157389 -0.273047 -0.355160 0.307283 -0.185511 -0.623675 -0.492758 0.126923 0.253291 -0.367735 0.299132 -0.136391 0.268861 0.299709 -0.449805 -0.123645 -0.240866 0.116465 -0.083024 -0.177079 -0.539491 -0.402388 0.615593 0.865879 0.065412 0.166859 0.732120 -0.350147 -0.049446 -0.547166 0.202234 0.149552 0.699786 -0.421150 -0.313207 0.153764 0.047699 0.562168 0.016407 -0.808527 0.084275 -0.566161 -0.288557 -0.404160 0.202522 0.118025 -0.017090 0.432552 -0.668768 0.151285 -0.097005 -0.159431 0.123723 -0.609006 0.161985 0.206677 -0.147476 -0.238391 0.590876 -0.452148 0.432008 0.475595 0.273176 -0.523472 -0.019603 -0.348248 -0.174465 -0.437298 -0.428648 0.049551 -0.107516 -0.074467 -0.200557 -0.160132 0.044719 -0.147760 0.309778 0.415799 -0.245732 -0.109551 0.020288 0.287936 0.148984 -0.108238 -0.571053 -0.315386 0.276854 0.227357 -0.259159 -0.063150 0.361709 -0.565989
I 0.151814 -0.287841 -0.005381 0.238088 -0.029895 0.031309 -0.018341 -0.986409 1.040026 -0.395142 -0.394900 -0.544219 0.078576 -0.561702 -0.279798 0.538140 -0.117236 -0.512725 0.096153 0.238481 0.638963 0.222312 -0.421527 -0.402174 0.047032 -0.593108 -0.183190 -0.832816 -0.511408 -0.161333 0.664511 1.059824 -0.125357 0.817125 0.325050 -0.487495 -0.062366 0.464073 0.669377 0.559725 0.422433 -0.326846 -0.274130 0.371721 -0.387373 0.409456 -0.566210 -0.456555 0.303147 -0.000817 -0.160677 0.261374 -0.401935 -0.199080 -0.706062 0.423175 -0.325855 -0.308889 0.764622 -0.189982 0.441880 -0.790012 -0.527249 0.459397 0.360992 -0.039597 0.320679 -0.665127 0.426952 0.387169 -0.095293 -0.093866 0.102813 0.158282 -0.097656 -0.216945 -0.337654 -0.068203 0.477744 -0.416236 0.013739 0.076091 0.455256 -0.422253 0.335738 0.484727 -0.267721 -0.411621 -0.090820 0.568432 0.620190 -0.516443 -0.506759 -0.156064 -0.329602 -0.156984 0.881151 -0.137419 0.426442 0.349664
is 0.503872 0.016045 0.215272 -0.282868 -0.061245 0.273162 -0.264597 -0.103209 -0.014701 0.203737 -0.514078 0.215085 -0.698068 -0.598405 0.115362 -0.012854 0.084503 -0.141662 0.304274 -0.325977 0.274367 0.337015 -0.453545 -0.229235 0.344792 0.071218 0.159930 0.015822 0.056572 -0.367942 0.254226 0.709604 0.404474 0.050097 0.318809 -0.194232 -0.464697 -0.839243 -0.188770 -0.008210 0.564591 -0.492400 -0.282534 -0.081842 0.276525 0.536229 -0.000351 -0.905416 -0.094809 -0.651430 -0.213482 -0.458987 -0.266263 0.055904 0.364525 0.256353 -1.000862 -0.117320 0.252255 0.209216 0.380807 -0.689168 0.801363 0.338668 0.008784 -0.208176 0.771998 -0.470591 0.379589 0.306208 0.450079 0.115731 -0.114950 0.336271 -0.114305 -0.567291 -0.386840 -0.044828 0.083510 0.164732 -0.381413 -0.592562 -0.095759 -0.461728 -0.055902 -0.322636 -0.020335 0.213171 0.341469 0.669212 0.417372 0.085513 -0.297336 -0.043931 -0.134676 -0.026773 -0.473835 0.099687 0.120733 -0.218842
you 0.042264 -0.086992 -0.150151 0.445696 -0.190833 -0.117021 -0.097105 -0.241742 0.513216 -0.573411 -0.126613 0.045316 0.448698 -0.070237 -0.330175 0.348647 -0.073831 -0.104893 0.397420 -0.245123 0.299596 0.466611 -0.264311 -0.130677 -0.145515 -0.449655 -0.077428 -0.124416 -0.554978 -0.136869 0.726151 1.140946 0.008890 1.438512 0.120597 -0.263960 0.216806 0.364073 0.656393 0.664380 0.663008 -0.432306 0.019014 0.676543 -0.361375 0.752462 0.189848 -0.265277 -0.119691 0.226975 0.271940 0.083582 0.035682 -0.028394 -0.692629 0.276179 -0.306160 -0.422638 0.176415 -0.367619 0.487901 -0.488447 -0.700991 0.344069 0.324363 0.360426 0.195780 -0.258095 -0.145056 0.908603 0.573154 -0.465346 0.082726 -0.798971 0.379812 -0.137083 0.151536 0.185578 0.183595 -0.267141 -0.258477 0.097751 -0.256636 -0.324620 -0.249157 0.364077 -0.353176 0.025614 0.068992 0.394442 0.016301 -0.182863 -0.962936 -0.378709 0.297900 -0.248381 0.361167 -0.032379 0.313348 -0.166099
that 0.307558 -0.058085 0.157947 0.167139 -0.162488 0.231996 -0.499063 -0.269762 0.381780 -0.132392 -0.271122 -0.159498 -0.292161 -0.523661 0.231145 0.187996 -0.136837 -0.294735 0.474374 -0.179440 0.264926 0.198215 -0.060917 -0.252175 0.199277 -0.171361 -0.038521 -0.058402 -0.117336 -0.217781 0.254964 0.947741 0.345551 0.261952 0.301379 -0.246417 -0.012746 -0.255161 0.127811 0.487483 0.416308 -0.092068 -0.263389 0.437343 0.027211 0.500241 -0.386450 -0.674595 -0.081421 -0.679085 -0.119725 -0.201319 -0.159630 -0.243431 -0.192075 0.403550 -0.898682 -0.275240 0.111560 -0.181800 0.478083 -0.670012 0.152742 0.283108 0.105921 -0.216477 0.435581 -0.342911 0.437783 0.294591 0.371675 0.077743 -0.269345 0.132207 -0.073780 -0.417768 -0.196034 0.145187 0.386715 0.181152 -0.222080 -0.246849 -0.010915 -0.537774 -0.023498 0.106765 -0.080273 0.355212 0.100025 0.398682 0.321200 -0.466929 -0.556160 -0.053622 -0.061360 -0.016488 -0.027330 0.140074 0.388690 0.071825
in 0.082722 0.012888 0.220545 0.004261 -0.104130 0.199890 -0.380178 -0.011239 -0.050392 -0.064513 -0.363333 0.067892 -0.321114 -0.404917 -0.031938 0.052019 0.149131 -0.050879 0.397971 -0.405033 0.264690 0.202155 -0.060389 -0.310057 0.029220 0.430332 0.018271 -0.028401 -0.249626 -0.283118 0.453431 0.620416 0.341760 0.048298 0.510714 -0.188116 -0.101641 -0.502217 -0.000237 0.350290 0.656475 -0.027463 -0.145042 0.225191 0.343158 0.371248 -0.094134 -0.644900 -0.051696 -0.582043 -0.020334 -0.405688 0.036422 -0.009376 0.073247 0.406732 -0.842922 -0.137060 -0.154880 -0.163108 0.468972 -0.405595 0.572171 0.007193 -0.205464 -0.132103 0.622358 -0.403290 0.380258 0.340177 0.232915 -0.322823 -0.073611 0.040105 -0.188864 -0.644977 -0.288168 0.133777 0.251327 0.190942 -0.223602 -0.228074 0.039203 -0.224635 0.098764 0.281962 0.007866 0.295345 0.033456 0.211804 0.347512 -0.149875 -0.586484 -0.125475 0.178448 0.227773 -0.260384 -0.020893 0.301178 -0.229875
for -0.150117 -0.124008 0.038194 0.059949 0.008712 -0.087622 -0.176263 0.168435 -0.055299 -0.125929 -0.117918 0.335608 0.160724 -0.042852 -0.453714 0.068868 0.426759 0.088697 0.348848 -0.343625 0.203673 0.342011 -0.128068 -0.298023 -0.086978 0.297865 0.124590 -0.018285 -0.363280 -0.144071 0.448913 0.477012 0.001210 0.438692 0.516642 -0.243773 0.015296 -0.316622 0.336372 0.366785 0.463557 -0.042781 -0.140681 0.140208 0.280207 0.294649 0.207673 -0.485586 -0.030342 -0.154172 -0.013836 -0.545173 0.177795 0.186663 -0.128672 0.224044 -0.293647 -0.044423 -0.150874 -0.069520 0.270806 -0.210693 0.189276 0.045076 -0.203302 0.216229 0.475009 -0.294135 -0.052785 0.519543 0.144865 -0.702411 0.265289 -0.405849 0.032422 -0.369696 -0.055342 0.173244 0.163935 0.006088 -0.260329 -0.064399 -0.212429 0.231287 0.051736 0.607491 -0.004601 0.042569 0.030757 0.333834 0.009566 0.143262 -0.863239 -0.223261 0.111459 0.078194 -0.034320 -0.120655 0.155384 -0.108949
it 0.627492 0.238809 0.156685 0.142666 -0.277996 0.264204 -0.207410 -0.868840 0.208876 -0.124421 -0.568380 -0.047778 -0.502501 -0.555074 -0.055716 0.117889 -0.099855 -0.286000 0.053307 -0.242844 0.659669 0.477907 -0.542748 -0.209910 -0.238706 -0.043503 0.163910 -0.748959 -0.193201 -0.181829 0.473884 0.895689 -0.035241 0.609466 0.271880 -0.396169 -0.103725 -0.304935 0.382642 0.528411 0.504617 -0.136707 -0.476323 0.192155 -0.081989 0.561437 -0.259720 -0.565545 0.000584 -0.368564 -0.184817 0.002711 -0.277681 -0.335824 -0.187888 0.401123 -0.813927 0.080252 0.306879 -0.043186 -0.023206 -0.623954 -0.125723 0.211375 0.407205 -0.123515 0.339392 -0.625368 0.336647 0.413357 0.338076 -0.074124 -0.128333 0.210099 0.040441 -0.249672 -0.417669 -0.019958 0.234773 -0.037233 -0.223246 -0.168097 0.187189 -0.608050 -0.078497 -0.107379 -0.364317 -0.213211 0.184354 0.432187 0.439384 -0.199094 -0.650079 -0.304443 -0.144610 -0.138674 0.274823 0.122696 0.353467 -0.053295
not 0.525375 0.018664 0.149488 0.191701 -0.207313 0.256063 -0.443979 -0.601700 0.286657 -0.103002 -0.448193 -0.267701 -0.350372 -0.447851 0.106664 0.149307 -0.127983 -0.025300 0.228758 -0.349006 0.475365 0.365319 -0.565982 -0.250590 -0.104929 -0.138823 0.039073 -0.560096 -0.301698 0.012772 0.290946 0.895898 0.240860 0.594657 0.260575 -0.222426 -0.243607 -0.327640 0.206551 0.465773 0.609733 -0.183478 -0.426132 0.255027 0.064597 0.716027 -0.138630 -0.563071 -0.039850 -0.443475 0.105260 0.169945 -0.360431 -0.446075 -0.035152 0.341982 -0.901567 -0.075417 0.252371 -0.061942 0.405430 -0.427427 0.034582 0.232206 0.296587 -0.087756 0.485712 -0.461299 0.297392 0.575616 0.626392 -0.128830 -0.026123 0.072591 0.083597 -0.325299 -0.281586 0.041556 0.390863 -0.031080 -0.247093 -0.377118 0.110822 -0.603036 -0.348271 -0.179394 -0.335479 -0.083163 0.179154 0.549526 0.590657 -0.179017 -0.739609 -0.242098 0.069835 -0.073328 -0.112702 0.030886 0.365171 -0.249770
on -0.262413 -0.237664 0.195938 0.018795 0.173928 -0.197276 -0.264074 0.233576 0.061122 -0.251632 -0.132303 -0.079863 0.292389 -0.215514 -0.285822 0.114009 0.390982 0.091278 0.264217 -0.504156 0.263354 0.420579 -0.038741 -0.445233 -0.068133 0.282115 0.126220 -0.202160 -0.471051 -0.364927 0.595848 0.686502 0.193177 0.557856 0.582936 -0.303639 0.003308 -0.203277 0.165908 0.575193 0.233307 -0.016146 -0.182930 0.234840 0.135993 0.306280 -0.085665 -0.611481 0.114635 0.007930 -0.181659 -0.495050 0.083877 0.370495 -0.155555 0.206409 -0.302474 -0.017502 -0.004550 -0.059151 0.390587 -0.306213 0.171868 0.127070 -0.246927 0.425475 0.566848 -0.320745 0.130442 0.612963 0.090164 -0.686563 0.342374 -0.355188 0.057114 -0.448329 -0.006802 0.091273 0.136283 -0.168457 -0.303796 0.309935 -0.141874 0.274316 0.263676 0.852783 0.004552 -0.213009 -0.078843 0.353232 0.138390 0.033088 -1.086024 -0.286413 0.042480 -0.104876 0.164050 -0.148684 0.210399 0.061510
be 0.568984 0.296235 0.090576 0.018666 -0.483225 0.185855 -0.389189 -0.516486 0.122730 -0.037462 -0.541792 0.202492 -0.500179 -0.320847 -0.003914 -0.000482 0.051072 -0.302098 0.287068 -0.353287 0.316287 0.166295 -0.111781 -0.137916 0.101340 -0.058340 0.186458 -0.117656 -0.064370 0.090381 0.739846 0.566656 0.051702 0.514750 0.217138 -0.273568 0.076562 0.079955 0.370431 0.623153 0.696540 0.020466 -0.159028 0.334105 0.050498 0.743301 -0.207460 -0.331031 -0.302738 -0.356764 0.026953 0.003237 -0.125511 -0.437462 -0.442584 0.285896 -0.911874 -0.057359 0.034795 -0.142827 0.083069 -0.369517 0.019141 -0.078977 0.442765 0.147177 0.407655 -0.634108 0.083847 0.382683 0.362252 -0.078581 -0.106908 0.058538 -0.068234 -0.288353 -0.360803 0.129125 0.096499 0.157466 -0.076959 0.011638 0.063506 -0.476163 -0.155826 -0.216555 -0.203209 -0.023564 0.297057 0.008079 0.328714 -0.220749 -0.572218 -0.088120 0.171604 -0.019114 0.156890 0.169790 0.164447 -0.036722
as 0.554117 0.226116 0.036939 -0.047534 -0.534210 0.153012 -0.057993 -0.465095 -0.158708 0.235835 -0.604651 0.171329 -0.482699 -0.246051 -0.319384 -0.052861 0.288807 0.025900 0.072837 -0.192741 0.424891 0.255256 -0.623390 -0.196179 -0.190136 0.280556 0.194454 -0.408393 -0.357166 0.158441 0.497205 0.395467 -0.040725 0.235197 0.380987 -0.403786 -0.466600 -0.731488 0.241366 -0.090243 0.898481 -0.160310 -0.065952 0.132970 0.039938 0.625195 0.304803 -0.516732 -0.184955 -0.384581 -0.105597 -0.291021 -0.218706 -0.140960 0.122391 0.479390 -0.763517 0.100872 0.076233 0.100851 -0.011166 -0.066588 0.336633 0.213764 0.029948 -0.316868 0.744871 -0.795666 0.183451 0.302478 0.161672 -0.253027 0.086787 0.130574 -0.064016 -0.123986 -0.596769 0.067601 0.008022 -0.080073 -0.189658 -0.420788 0.236106 -0.027351 0.023451 -0.212391 -0.146719 -0.010991 0.259898 0.228711 0.513557 0.321123 -0.256168 0.056788 0.057113 0.261922 -0.400126 -0.000728 0.033848 -0.598316
are 0.022535 -0.260018 0.069235 0.349143 -0.413217 0.060618 -0.530427 0.279325 -0.012524 -0.324140 -0.095319 -0.056818 -0.048484 -0.059296 0.066215 0.159700 -0.144667 -0.028887 0.622830 -0.552294 -0.048410 0.012975 0.143643 -0.204406 0.023227 -0.022758 -0.140591 0.494841 -0.392572 -0.048554 0.385348 0.575093 0.523106 0.363691 0.268805 -0.148544 0.181222 -0.288933 -0.038607 0.184175 0.707145 -0.045716 0.200002 0.575204 0.044645 0.426418 -0.168946 -0.380597 -0.183094 -0.515249 0.221308 -0.124961 0.068431 -0.163494 0.025587 0.170494 -0.906807 -0.330970 -0.275957 -0.313583 0.546631 -0.197056 0.114306 0.070008 -0.170954 -0.195241 0.346419 0.046681 0.201191 0.397808 0.526588 -0.241867 -0.123919 -0.403011 -0.062256 -0.222076 -0.042781 0.286335 0.138522 0.128971 -0.313767 -0.070960 -0.214954 -0.257568 -0.161401 0.129878 0.016239 0.519220 0.099581 -0.150953 -0.009389 -0.374222 -0.469344 -0.137043 0.391983 0.192895 -0.583670 -0.116720 0.371895 -0.327522
this 0.229656 0.028731 0.098933 0.000127 -0.113255 0.068782 -0.274354 -0.223416 0.089780 -0.021637 -0.397516 0.001198 -0.237339 -0.279625 -0.044751 0.093933 0.090077 -0.020535 0.310109 -0.403977 0.412635 0.369432 -0.246136 -0.200100 -0.067937 0.150567 0.152916 -0.274590 -0.247226 -0.189608 0.399569 0.680261 0.149330 0.463215 0.294262 -0.190036 -0.103700 -0.317666 0.165085 0.405315 0.564985 -0.159069 -0.257211 0.158501 0.177746 0.433847 0.113035 -0.523376 -0.115379 -0.255823 0.152301 -0.208729 -0.057455 -0.131567 -0.011378 0.199683 -0.543190 -0.153779 0.111379 -0.051064 0.308701 -0.382238 0.215789 0.130174 0.079184 0.057956 0.490557 -0.415459 0.114487 0.481327 0.320727 -0.291937 0.031808 -0.004096 0.021599 -0.379561 -0.207506 0.059278 0.230930 0.040466 -0.146127 -0.225432 0.034878 -0.185061 -0.127189 0.045612 -0.162812 -0.000061 0.100858 0.416460 0.405274 0.089838 -0.675630 -0.134795 0.145550 0.038141 -0.033955 -0.005724 0.107944 -0.199035
have -0.048381 -0.260436 -0.069580 0.483239 -0.104729 0.103182 -0.122500 -0.196851 0.267189 -0.320688 0.040464 0.022164 0.159747 -0.202242 -0.306093 0.193695 -0.076311 -0.309913 0.489574 -0.046494 0.234733 0.246568 -0.199078 -0.115660 -0.184758 -0.411381 -0.061878 -0.035658 -0.498518 -0.108206 0.459542 0.934723 0.168016 0.609912 0.362571 -0.171856 0.022153 0.298714 0.536580 0.418331 0.446636 -0.267521 -0.277956 0.519097 0.077180 0.530472 -0.075980 -0.357832 -0.226480 -0.120111 0.197425 -0.178223 -0.008537 -0.367413 -0.256877 0.309281 -0.497855 -0.207394 -0.087656 -0.417917 0.305258 -0.252783 -0.273700 0.127515 0.008854 -0.001166 0.174347 -0.105825 0.018411 0.572217 0.406887 -0.226835 -0.025355 -0.443770 -0.060957 -0.302148 0.097700 0.188227 0.259534 -0.141196 -0.231305 -0.227887 -0.387799 -0.479315 -0.214648 0.371271 -0.311031 0.298608 0.094242 0.201866 -0.118306 -0.275225 -0.786652 -0.415279 0.042551 -0.147494 0.025824 -0.012698 0.526170 -0.159514
was 0.238872 -0.051362 0.220457 -0.023233 -0.022158 0.187193 -0.210904 -0.406450 0.230782 -0.060774 -0.468553 -0.181085 -0.453910 -0.536156 -0.003699 0.197900 0.052946 -0.188028 0.128996 -0.149639 0.377830 0.182165 -0.205199 -0.291359 0.120283 0.202448 -0.029053 -0.410635 -0.161281 -0.279877 0.247786 0.492309 0.102555 -0.038756 0.466514 -0.225801 -0.240812 -0.423465 0.056991 0.267978 0.337151 -0.103135 -0.252505 0.100432 0.157493 0.234127 -0.358595 -0.632336 0.181488 -0.522251 -0.277828 -0.164973 -0.205340 -0.101330 -0.033305 0.395931 -0.715426 -0.030263 0.218189 -0.005385 0.260619 -0.521060 0.378443 0.081430 -0.024844 -0.212642 0.428193 -0.445917 0.358188 0.104656 0.034997 -0.087832 -0.038698 0.325894 -0.146089 -0.466216 -0.387293 -0.010306 0.233680 0.071802 -0.123158 -0.160373 0.219077 -0.281847 0.214309 0.190263 0.015368 -0.060168 -0.004197 0.419827 0.557758 -0.264937 -0.355875 -0.000703 -0.178932 0.067002 0.029385 -0.004132 0.241725 0.061569
with -0.071458 -0.171728 0.079810 0.067308 -0.003530 0.064842 -0.123710 -0.141830 0.102529 -0.098868 -0.149115 -0.082216 -0.054690 -0.277971 -0.088257 0.105536 0.134630 -0.020959 0.261840 -0.237093 0.200989 0.241414 -0.180557 -0.193354 0.055380 0.052591 0.022467 -0.105874 -0.250497 -0.189379 0.326585 0.629850 0.175446 0.315460 0.324801 -0.148539 -0.087205 -0.229352 0.046480 0.271812 0.377388 -0.172771 -0.195175 0.121663 0.113338 0.323640 -0.027745 -0.535971 0.044217 -0.193350 -0.046740 -0.155631 -0.025572 0.081778 -0.023148 0.296817 -0.587004 -0.168091 0.077845 -0.133835 0.398658 -0.330411 0.192376 0.123320 -0.077616 0.062248 0.409800 -0.229915 0.138813 0.480078 0.263805 -0.273681 0.060309 -0.067365 -0.049551 -0.474682 -0.144208 0.083093 0.270236 -0.018241 -0.157826 -0.141687 -0.048579 -0.219740 0.028547 0.278796 -0.078407 0.059345 0.005015 0.320705 0.242217 -0.059997 -0.554346 -0.161543 0.128649 -0.041669 -0.127874 -0.031933 0.194345 -0.187747
but 0.248413 -0.123325 0.092781 0.056834 -0.096513 0.185741 -0.225193 -0.469949 0.370497 -0.113261 -0.315623 -0.200433 -0.184357 -0.379024 0.013375 0.198353 -0.104796 -0.208436 0.260353 -0.055252 0.328675 0.134575 -0.300317 -0.203087 0.042155 -0.188738 -0.034124 -0.371601 -0.269651 -0.165969 0.378574 0.717990 0.138257 0.372000 0.243491 -0.191429 -0.157426 -0.076411 0.254021 0.328747 0.470399 -0.250489 -0.279616 0.195341 0.037519 0.361026 -0.227737 -0.518852 0.045155 -0.347589 -0.007612 0.022833 -0.248502 -0.278220 -0.139283 0.254855 -0.565850 -0.132031 0.252546 -0.069804 0.348415 -0.484816 -0.011752 0.164426 0.171180 -0.100557 0.421696 -0.454344 0.299919 0.286702 0.201590 -0.062063 -0.097621 0.189623 -0.114496 -0.317231 -0.273783 0.008706 0.320394 -0.082153 -0.118061 -0.246209 0.177814 -0.365366 0.001254 0.044410 -0.190382 -0.052348 0.041166 0.376973 0.417913 -0.253102 -0.458360 -0.090661 -0.009895 -0.004476 0.148230 -0.018957 0.322646 -0.016420
your -0.306114 -0.170852 0.097472 0.046711 0.074618 -0.109984 -0.090879 0.016918 0.122937 -0.173843 -0.091200 -0.058563 0.381746 -0.013868 -0.291416 0.123283 0.288207 0.121723 0.139986 -0.219927 0.123477 0.127647 -0.082624 -0.244052 -0.015595 0.089287 -0.073508 -0.140110 -0.396686 -0.110256 0.375373 0.416956 0.013369 0.505418 0.329617 -0.192852 -0.016533 -0.074747 0.117141 0.333714 0.322319 -0.019028 -0.060959 0.043121 0.058840 0.199131 -0.061838 -0.338196 0.190846 0.112311 -0.085180 -0.096901 -0.012524 0.245388 -0.154927 0.157460 -0.163751 -0.035429 -0.009091 -0.046796 0.376652 -0.209386 0.010134 0.077150 -0.178144 0.259759 0.383674 -0.131795 0.160001 0.420453 0.042684 -0.540636 0.191768 -0.252222 0.034205 -0.310537 -0.005563 0.048543 0.233893 -0.127343 -0.152726 0.175590 0.058554 0.125806 0.146326 0.547756 -0.009911 -0.146042 -0.138589 0.135059 0.056420 0.040107 -0.640625 -0.211116 0.150582 -0.003743 0.110216 -0.178285 0.166465 -0.021607
or 0.224821 0.046038 -0.023400 0.178566 -0.108703 0.055542 -0.183644 -0.104258 -0.041224 0.034356 -0.106519 0.164382 -0.103800 -0.199970 -0.063697 -0.006995 0.151117 0.073212 0.266330 -0.235009 0.307576 0.297942 -0.264257 -0.135831 -0.111595 0.127160 0.145410 -0.181729 -0.167043 0.012527 0.336843 0.542069 -0.002729 0.210256 0.225392 -0.138722 -0.146471 -0.277809 0.218320 0.247508 0.361706 0.058127 -0.254845 0.152313 0.183278 0.406644 0.137127 -0.475634 -0.150648 -0.200672 0.111262 -0.312926 0.014425 -0.160994 0.022723 0.183030 -0.497282 0.033410 -0.160822 -0.077863 0.084484 -0.116063 0.095505 0.127372 0.072740 0.015010 0.471813 -0.312157 -0.061283 0.310999 0.314070 -0.235498 -0.013486 -0.187195 0.051151 -0.226333 -0.058945 0.133758 0.194166 0.009340 -0.126280 -0.180468 -0.028127 -0.096346 -0.195623 0.079312 -0.245357 0.114228 0.109911 0.247672 0.192588 0.077090 -0.589290 -0.062292 0.140978 -0.065362 -0.279127 0.119940 0.146563 -0.243414
at -0.179679 0.049878 0.073699 0.001230 -0.224891 0.081598 -0.056131 0.035595 -0.212133 -0.183627 -0.244223 0.092131 -0.223374 -0.182644 -0.220919 0.110576 0.149728 -0.122245 0.304562 -0.381371 0.198869 0.130881 -0.028444 -0.071802 -0.177911 0.325406 0.013699 0.030991 -0.235822 -0.243932 0.326366 0.412872 0.078471 0.330794 0.300848 -0.239934 0.177463 -0.265687 -0.048799 0.252972 0.413343 -0.065603 -0.042415 0.227326 -0.013220 0.330510 0.129233 -0.258290 -0.008156 -0.317904 -0.058299 -0.271563 0.198995 0.075857 -0.044144 0.195572 -0.425910 -0.031210 -0.075206 -0.108686 0.085117 -0.242996 0.121571 -0.068773 -0.069359 -0.057849 0.200167 -0.166826 0.126693 0.439862 0.238711 -0.408703 0.064674 -0.299596 0.065240 -0.215722 -0.220354 0.150558 -0.019255 -0.019175 -0.175837 0.045180 -0.093290 -0.073547 0.105275 0.220143 0.014674 -0.046177 -0.035793 0.098408 0.059451 0.028737 -0.484763 -0.226683 0.336935 0.163376 -0.138903 -0.057890 0.144515 -0.386039
""" -0.011625 -0.016574 0.118967 -0.128830 0.087109 -0.074632 -0.117814 0.100668 0.063966 -0.104914 -0.164679 0.077918 0.050032 -0.046043 -0.093458 0.053129 0.132894 0.088821 -0.006384 -0.289408 0.090238 0.232051 0.066925 -0.148905 0.026340 0.216125 0.138990 -0.122196 -0.161618 -0.170242 0.199917 0.166235 0.029218 0.269869 0.114266 -0.099904 0.063384 0.007366 0.060647 0.253206 0.107727 -0.014397 -0.057827 0.047755 0.000175 0.018557 0.094189 -0.119245 0.054150 0.101704 -0.010071 -0.120559 0.047928 0.232989 -0.192925 -0.031388 0.064337 -0.023833 0.104944 0.042181 0.136389 -0.151402 0.136718 -0.002791 -0.010922 0.280233 0.098684 -0.242940 -0.043714 0.218890 -0.030411 -0.282293 0.188043 -0.142119 0.112812 -0.119974 -0.095139 -0.034735 -0.051542 -0.045817 -0.063676 0.151731 0.023432 0.181309 0.149095 0.188074 0.057788 -0.193818 0.019149 0.180056 0.134112 0.130371 -0.384893 -0.074346 -0.009895 -0.025370 0.240971 -0.118552 -0.058317 0.125811
from 0.062480 0.024160 0.175530 -0.018190 -0.000895 0.015044 -0.098257 0.033999 -0.025197 -0.146701 -0.336247 0.150382 -0.259034 -0.286734 -0.072840 0.124838 0.123669 -0.127918 0.282432 -0.301292 0.104116 0.123023 -0.004242 -0.168491 0.123407 0.303954 0.087675 0.101648 -0.140728 -0.257348 0.378166 0.376752 0.140031 0.124622 0.364545 -0.097595 0.036036 -0.314909 0.039544 0.213426 0.447294 -0.060996 -0.055578 0.120304 0.184141 0.283126 -0.082396 -0.419778 -0.019718 -0.301464 -0.120280 -0.291792 0.061270 0.067231 -0.116411 0.185257 -0.498006 -0.073943 0.015825 -0.062522 0.206786 -0.366324 0.411008 -0.063472 -0.090068 -0.057511 0.371593 -0.253841 0.229017 0.279928 0.193037 -0.254517 0.029385 -0.074061 -0.069537 -0.370744 -0.219198 0.062287 -0.036448 0.112480 -0.178814 -0.016262 -0.008985 -0.140956 0.058817 0.071150 0.072512 0.092890 0.046800 0.171893 0.194186 -0.035106 -0.355323 -0.135198 0.090383 0.058316 -0.010270 -0.068703 0.097555 -0.102728
an 0.133597 -0.037865 0.133877 -0.092544 -0.145933 0.086935 -0.152795 -0.136524 0.015528 0.038621 -0.346295 -0.011110 -0.265234 -0.287767 -0.122214 0.097527 0.179294 -0.079187 0.287987 -0.237821 0.263942 0.172088 -0.286580 -0.242373 0.083424 0.178753 0.067363 -0.104251 -0.220702 -0.142482 0.413865 0.407506 0.145212 0.179024 0.381487 -0.188928 -0.195481 -0.440471 0.047122 0.097191 0.564048 -0.146901 -0.096890 0.083176 0.234941 0.328248 0.014747 -0.534529 -0.025654 -0.273605 -0.044008 -0.191263 -0.082443 -0.063853 0.086035 0.261391 -0.587564 -0.042052 0.105630 0.029089 0.251013 -0.270276 0.373269 0.093446 -0.064956 -0.083596 0.624365 -0.394978 0.211662 0.293712 0.157378 -0.234206 0.064187 0.134100 -0.176333 -0.359922 -0.332076 0.056173 0.163308 0.009345 -0.157116 -0.247257 0.103091 -0.070231 0.005165 0.052694 -0.036522 -0.029913 0.100691 0.244693 0.377045 0.065450 -0.353822 -0.051884 0.095956 0.153170 -0.186847 -0.061144 0.147342 -0.238832
if 0.316783 -0.070019 -0.015113 0.228993 -0.161037 0.051232 -0.159800 -0.355278 0.365944 -0.280013 -0.180444 -0.102773 -0.025540 -0.222133 -0.056279 0.176256 -0.110718 -0.154799 0.129628 -0.058578 0.330744 0.285599 -0.306290 -0.173193 -0.111344 -0.329497 -0.019078 -0.323571 -0.311148 -0.017784 0.384401 0.759552 0.060901 0.624557 0.087886 -0.269277 -0.012098 0.173615 0.375179 0.408053 0.295386 -0.199428 -0.159841 0.377191 -0.183486 0.471834 -0.030412 -0.262416 -0.086350 -0.112215 0.096177 0.085239 -0.119357 -0.239382 -0.379268 0.213936 -0.314995 -0.148630 0.270777 -0.167356 0.208700 -0.274611 -0.320104 0.237502 0.309620 0.033142 0.157537 -0.320594 0.066153 0.427764 0.360003 -0.055634 -0.041377 -0.188114 0.155508 -0.024658 -0.147180 0.060174 0.183192 -0.169925 -0.159794 -0.070148 -0.087438 -0.355603 -0.081487 0.086472 -0.263927 -0.021097 0.132467 0.335081 0.224504 -0.197989 -0.521548 -0.134653 -0.036782 -0.182870 0.196033 0.070493 0.256304 -0.051507
The 0.085569 0.048308 0.194382 -0.137627 -0.030936 0.115118 -0.172723 0.064768 -0.086389 0.048687 -0.244603 0.116372 -0.419417 -0.308849 0.004350 0.034580 0.117133 -0.033277 0.207801 -0.294259 0.107593 0.158823 -0.022498 -0.107985 0.052975 0.348089 0.104432 0.046775 0.015847 -0.301811 0.131742 0.257747 0.163493 -0.076473 0.303365 -0.053800 -0.075444 -0.464026 -0.077109 0.144179 0.304695 -0.095471 -0.143889 -0.041444 0.240207 0.140581 -0.025026 -0.434314 -0.016657 -0.356156 -0.134742 -0.319306 0.019090 0.033438 0.185852 0.121403 -0.480970 -0.023020 -0.038974 0.032555 0.198221 -0.302156 0.532459 -0.037821 -0.119054 -0.070670 0.305945 -0.237712 0.143032 0.174134 0.170372 -0.126895 -0.011855 0.108106 -0.145551 -0.396471 -0.181433 0.029541 0.028203 0.179525 -0.142923 -0.200629 -0.028978 -0.083121 0.019198 0.040739 0.117192 0.078257 0.091134 0.242471 0.229899 0.068915 -0.269407 -0.037804 0.057499 0.118033 -0.223015 -0.004934 0.031542 -0.137329
by -0.056398 -0.053184 0.126798 -0.100751 0.050975 0.048513 -0.071399 -0.019607 -0.001118 -0.034108 -0.340405 -0.014656 -0.175325 -0.221253 -0.161491 0.147634 0.115781 -0.083968 0.108041 -0.154336 0.114510 0.120871 -0.021201 -0.127189 0.107455 0.258978 -0.020992 -0.129529 -0.235687 -0.189569 0.268368 0.207308 0.079614 -0.001915 0.334109 -0.092538 -0.106678 -0.217063 0.014255 0.130334 0.339337 -0.055176 -0.099890 0.113749 0.228651 0.161765 -0.178498 -0.312677 0.084550 -0.230054 -0.123912 -0.241177 -0.025256 -0.017128 0.033429 0.181602 -0.378029 0.006974 0.014027 0.032192 0.262140 -0.231880 0.380546 -0.025651 -0.179776 -0.073827 0.286486 -0.218198 0.203403 0.142423 0.021567 -0.233050 0.082886 -0.005323 -0.105588 -0.318194 -0.194049 -0.011777 0.016230 0.038567 -0.082606 -0.041006 0.062318 -0.100585 0.031036 0.180103 0.082795 -0.050065 0.001096 0.129500 0.253021 -0.049257 -0.263997 -0.141524 0.038923 0.121676 -0.049404 -0.107238 0.115954 -0.073160
do 0.335511 -0.110513 -0.064804 0.338943 -0.264260 0.122252 -0.359135 -0.493137 0.356441 -0.185039 -0.057386 -0.219917 0.111784 -0.122093 0.043538 0.124876 -0.160880 -0.083093 0.118805 -0.143136 0.256667 0.241135 -0.411428 -0.187448 -0.157778 -0.457455 0.001990 -0.350440 -0.344461 0.181438 0.275668 0.800136 0.132581 0.809418 0.014495 -0.196035 -0.063677 0.192915 0.362974 0.433221 0.356374 -0.042695 -0.197119 0.367841 -0.217795 0.509932 -0.107241 -0.209998 -0.098054 -0.056535 0.167027 0.328551 -0.229042 -0.374365 -0.288572 0.206308 -0.437718 -0.141730 0.242023 -0.220016 0.331196 -0.139414 -0.445619 0.292356 0.302437 0.076479 0.149535 -0.219340 0.062787 0.485418 0.456344 -0.098304 -0.049572 -0.218844 0.151620 0.023828 -0.074888 0.111232 0.369250 -0.167772 -0.129774 -0.106693 -0.004766 -0.402794 -0.259804 0.032559 -0.358821 -0.013763 0.114701 0.254610 0.236361 -0.215668 -0.591495 -0.185496 0.052236 -0.238489 0.113297 0.043036 0.330267 -0.056045
has 0.185377 -0.011922 0.158744 0.168215 -0.084863 0.218588 -0.282700 -0.144647 -0.154486 0.111034 -0.207773 0.073248 -0.302168 -0.312714 -0.099585 -0.053354 0.045470 -0.123634 0.257457 -0.221440 0.322741 0.403437 -0.251157 -0.151680 -0.198190 0.088828 0.166831 -0.187076 -0.095511 -0.171232 0.208275 0.526325 0.204991 0.087574 0.471093 -0.094791 -0.192043 -0.411100 0.063497 0.189291 0.254164 -0.057005 -0.397422 0.082353 0.311628 0.242689 -0.154249 -0.607746 -0.119813 -0.402408 -0.144968 -0.407765 -0.147450 -0.182839 0.314033 0.261325 -0.724033 0.123972 -0.175570 -0.131705 0.027316 -0.251207 0.319544 0.111939 -0.119530 -0.076623 0.336172 -0.180945 0.137368 0.266420 0.252548 -0.075780 -0.041271 0.068414 -0.137421 -0.385907 -0.061004 0.026871 0.134159 0.044230 -0.288091 -0.250609 -0.209194 -0.401018 -0.112183 0.118111 -0.131218 0.155819 0.194650 0.154432 -0.008987 -0.010248 -0.560774 -0.272308 -0.146290 -0.071901 -0.242673 0.124872 0.255479 -0.146516
my -0.259137 -0.140937 0.126113 0.054766 0.153240 -0.206680 -0.153535 0.137627 0.107336 -0.220215 -0.022442 -0.135866 0.398326 -0.032105 -0.224426 0.134139 0.307254 0.155918 0.136261 -0.288906 0.199446 0.199961 -0.104889 -0.418120 -0.135948 0.209582 -0.037021 -0.184205 -0.382150 -0.183193 0.370525 0.385408 0.078785 0.396121 0.332606 -0.179110 0.043612 -0.170893 0.131004 0.309173 0.124445 -0.013949 0.021977 0.076070 0.039198 0.082137 -0.015783 -0.346406 0.183657 0.139363 -0.072697 -0.199456 0.059492 0.358173 -0.155630 0.143460 -0.013763 -0.025828 -0.013258 -0.061273 0.221140 -0.170523 0.005273 0.112794 -0.200242 0.316415 0.415514 -0.138940 0.139549 0.362334 -0.086628 -0.559174 0.272691 -0.211216 0.029747 -0.249046 -0.041230 0.042167 0.141514 -0.119152 -0.180052 0.217382 0.077527 0.267520 0.256307 0.633171 0.026930 -0.204790 -0.170767 0.151988 0.085637 0.021540 -0.617374 -0.155712 0.022657 0.029420 0.198657 -0.153774 0.134791 0.013519
can 0.253885 -0.093980 -0.037110 0.300842 -0.361357 0.050383 -0.306960 -0.246805 0.359817 -0.305749 -0.030338 0.078203 -0.042399 -0.205155 0.025178 0.188863 -0.198900 -0.275188 0.280548 -0.172112 0.183933 0.262220 -0.149871 -0.128488 -0.093324 -0.463963 0.000939 -0.026810 -0.280703 0.033596 0.402150 0.861247 0.103754 0.755820 0.063296 -0.235720 0.164976 0.397755 0.373310 0.481576 0.342895 -0.115029 -0.103123 0.569629 -0.209386 0.543449 -0.133510 -0.293419 -0.316661 -0.237486 0.123515 0.124102 0.025738 -0.409044 -0.427459 0.239169 -0.432649 -0.258827 0.160374 -0.358333 0.360683 -0.228744 -0.416349 0.202563 0.255483 0.001315 -0.019431 -0.170522 -0.002767 0.492251 0.500056 0.022989 -0.092146 -0.414796 0.053568 0.083434 -0.025900 0.160425 0.173492 -0.055599 -0.119958 -0.009701 -0.235990 -0.386711 -0.156546 0.152418 -0.289344 0.214080 0.240141 0.214662 0.055983 -0.355369 -0.547613 -0.125827 0.133990 -0.188478 0.034337 0.130416 0.253944 -0.034708
about -0.143273 -0.020769 0.093710 -0.052780 0.045611 0.056324 -0.046954 -0.022437 -0.036390 -0.111312 -0.187358 0.010383 0.099920 -0.183252 -0.268875 0.047766 0.217648 -0.067466 0.137091 -0.202608 0.121865 0.052022 -0.097526 -0.141521 0.012514 0.154733 -0.032849 -0.140370 -0.324456 -0.196684 0.280372 0.400152 0.080481 0.269710 0.204337 -0.224793 -0.009512 -0.197020 0.002143 0.172027 0.215078 -0.052590 -0.155815 0.071062 0.135721 0.205584 -0.032703 -0.281293 0.104682 -0.077453 -0.051539 -0.203463 0.050096 0.130316 -0.043863 0.193007 -0.219933 0.000427 0.012050 0.030903 0.132787 -0.279088 0.159362 0.037004 -0.080336 0.107469 0.317958 -0.158192 0.272500 0.274365 0.107310 -0.369387 0.007843 -0.106466 0.019151 -0.316798 -0.152310 0.070064 0.141905 -0.055459 -0.168067 -0.014003 0.031244 -0.047001 0.106639 0.286427 -0.012025 -0.096391 -0.069191 0.198868 0.117398 0.031845 -0.442355 -0.215682 0.051817 0.030354 0.105374 -0.097368 0.214400 -0.089566
will 0.192420 0.036800 0.005315 0.193580 -0.207772 -0.014818 -0.191134 -0.271021 0.203802 -0.189929 -0.227454 -0.008516 -0.021818 -0.140925 -0.059315 0.111709 0.008832 -0.148941 0.199384 -0.183881 0.199036 0.157758 -0.046316 -0.157388 0.008144 -0.178335 0.041548 -0.096318 -0.211968 0.044363 0.450503 0.502318 0.027617 0.510174 0.125885 -0.172318 0.138682 0.153086 0.290478 0.467984 0.383152 0.019016 -0.067854 0.308140 -0.103785 0.446040 -0.164670 -0.177374 -0.109131 -0.082726 0.043034 0.019090 -0.033523 -0.214445 -0.397431 0.169487 -0.421566 -0.081828 0.058147 -0.157073 0.147070 -0.219229 -0.202199 0.033585 0.249400 0.118532 0.194975 -0.277321 0.085184 0.351541 0.237630 -0.141847 -0.040814 -0.160981 0.046383 -0.103065 -0.084462 0.129784 0.121782 -0.023363 -0.073519 0.151408 -0.022966 -0.249067 -0.052898 0.061007 -0.151991 -0.011698 0.085163 0.065340 0.160784 -0.210237 -0.465060 -0.090545 0.111700 -0.104519 0.192014 0.038522 0.184407 0.015793
they 0.119607 -0.183694 0.033157 0.355069 -0.264032 0.106953 -0.376557 -0.094651 0.146187 -0.318563 -0.054137 -0.113487 -0.010391 -0.159096 0.060743 0.136384 -0.173528 -0.160287 0.431723 -0.256479 0.095406 0.054855 0.064537 -0.145617 -0.054594 -0.242686 -0.067744 0.061976 -0.353906 0.035548 0.318880 0.646444 0.284412 0.375634 0.194834 -0.160185 0.120482 0.042947 0.205269 0.376888 0.458573 -0.016512 -0.087999 0.533427 0.009527 0.438129 -0.171298 -0.250854 -0.147056 -0.388613 0.175932 -0.012317 -0.017893 -0.352708 -0.197766 0.203105 -0.650822 -0.226412 -0.110303 -0.292059 0.324640 -0.161773 -0.164171 0.042082 0.087723 -0.100700 0.168507 -0.091132 0.165557 0.331612 0.364488 -0.092918 -0.183229 -0.227437 0.002230 -0.158709 -0.028220 0.245035 0.228408 0.031490 -0.162765 -0.091249 -0.210051 -0.345483 -0.136528 0.106096 -0.139715 0.342363 0.072716 0.008100 0.055580 -0.435012 -0.563565 -0.149305 0.187957 -0.021402 -0.121455 -0.031063 0.426493 -0.143228
any -0.192497 -0.185126 -0.106008 0.316591 0.041552 0.055328 -0.018129 -0.008267 0.203225 -0.283017 0.072192 0.019593 0.216329 0.014660 -0.264440 0.172311 0.037827 -0.054901 0.395532 -0.039208 0.161226 0.141817 -0.194753 -0.081946 -0.070906 -0.174158 -0.120040 -0.021528 -0.363280 -0.111730 0.328774 0.611373 0.019462 0.550533 0.125528 -0.110461 0.066585 0.137058 0.397987 0.325533 0.328458 -0.261250 -0.122013 0.320027 0.091368 0.407134 0.230239 -0.191989 -0.149196 0.046108 0.326655 -0.134880 0.127367 -0.119531 -0.263542 0.150863 -0.121386 -0.235949 -0.032674 -0.253790 0.300952 -0.107866 -0.211606 0.025426 0.057658 0.083312 0.212178 -0.020505 -0.060696 0.517537 0.327454 -0.333672 0.021411 -0.479753 0.095200 -0.204613 0.054719 0.178901 0.190319 -0.115329 -0.182460 -0.218597 -0.260148 -0.224473 -0.242111 0.262104 -0.163220 0.169203 -0.029012 0.284949 0.033888 -0.023266 -0.623266 -0.269639 0.204862 -0.083767 0.027471 -0.078140 0.291578 -0.281359
article 0.221939 0.062162 0.203358 -0.155113 -0.054279 0.142767 -0.263334 -0.084810 -0.035033 0.065887 -0.439311 0.081615 -0.440090 -0.362136 -0.026036 0.046045 0.119762 -0.080146 0.291543 -0.392933 0.309713 0.233454 -0.150341 -0.149177 0.057775 0.320770 0.204095 -0.135148 -0.099677 -0.270381 0.323362 0.440290 0.160801 0.212640 0.311967 -0.153855 -0.117512 -0.455251 0.005949 0.282042 0.492481 -0.132124 -0.249155 0.041211 0.286440 0.332306 0.028181 -0.513186 -0.065198 -0.356812 -0.038978 -0.315311 -0.069130 -0.098033 0.118264 0.183990 -0.584190 -0.067786 0.096297 0.080732 0.247782 -0.415762 0.507025 0.009986 0.013480 -0.024993 0.473347 -0.444643 0.246184 0.320032 0.263684 -0.186530 0.033846 0.165098 -0.086214 -0.439178 -0.271975 0.035466 0.116711 0.098048 -0.165145 -0.231268 0.043062 -0.126087 -0.066347 -0.034452 -0.007470 -0.010286 0.124029 0.388088 0.404348 0.131415 -0.496835 -0.132239 0.101084 0.119930 -0.050960 -0.029815 0.078800 -0.109709
all 0.016477 -0.060273 0.125505 0.065076 -0.188045 0.087875 -0.345767 0.068312 0.034026 -0.267688 -0.277604 0.038661 -0.265658 -0.196747 -0.001078 0.211995 -0.016965 -0.134984 0.365455 -0.346501 0.113952 0.077967 0.141433 -0.185709 0.003860 0.197824 -0.000317 0.134625 -0.248519 -0.174142 0.333348 0.464389 0.215465 0.242367 0.279358 -0.189639 0.108674 -0.193214 0.022876 0.297918 0.491444 0.005895 0.020578 0.349986 0.039369 0.318703 -0.136514 -0.354761 -0.073890 -0.446590 0.014458 -0.242503 0.069150 -0.112514 -0.099709 0.255162 -0.602801 -0.247477 0.064854 -0.156806 0.388079 -0.292320 0.197821 0.010355 -0.076852 -0.162493 0.217101 -0.201432 0.250882 0.289025 0.239745 -0.169962 -0.016788 -0.180072 -0.045581 -0.214477 -0.157057 0.142984 0.085078 0.066109 -0.128805 -0.010223 -0.052023 -0.187409 0.077998 0.149423 0.123449 0.257121 0.035059 0.112068 0.214443 -0.245153 -0.418338 -0.067180 0.216541 0.121323 -0.107001 -0.086590 0.205202 -0.117421
been 0.130072 -0.035067 0.019710 0.351849 -0.109421 0.160633 -0.165149 -0.241082 -0.066917 -0.004222 -0.093622 0.095546 -0.028591 -0.220636 -0.295099 -0.034356 0.045224 -0.187733 0.203815 -0.105863 0.342228 0.421077 -0.256893 -0.087533 -0.392349 -0.079148 0.179267 -0.271539 -0.270624 -0.038557 0.274256 0.593627 0.075723 0.354239 0.442295 -0.147001 -0.097223 -0.039627 0.326797 0.300312 0.225068 -0.000073 -0.425915 0.204570 0.176506 0.278090 -0.125544 -0.397523 -0.136701 -0.152253 -0.053312 -0.334544 -0.111795 -0.286773 0.082294 0.272644 -0.526777 0.137562 -0.200031 -0.240267 -0.065349 -0.151649 -0.052080 0.125368 -0.039981 0.019711 0.125968 -0.200202 0.012489 0.386257 0.266503 -0.194248 0.032364 -0.177910 -0.039557 -0.255248 0.061948 0.063782 0.164981 -0.106382 -0.250727 -0.136162 -0.281244 -0.376155 -0.163947 0.276852 -0.277212 0.092446 0.160028 0.084207 -0.177652 -0.040139 -0.683648 -0.428369 -0.144404 -0.142689 -0.001318 0.111175 0.353175 -0.075650
more -0.077963 0.064686 0.012824 0.038580 -0.062749 0.134104 0.051113 -0.190583 -0.120763 -0.054287 -0.173503 0.211952 0.098792 -0.199975 -0.318332 -0.072427 0.230181 -0.134476 0.238103 -0.107230 0.116519 0.063828 -0.269862 -0.121007 0.015236 0.043839 -0.136599 -0.128713 -0.383768 -0.138416 0.412762 0.525709 0.086336 0.179636 0.289844 -0.209010 -0.094855 -0.320248 0.209942 0.196808 0.448993 -0.173764 -0.177601 0.133129 0.263590 0.330971 0.019956 -0.404434 -0.020413 -0.193147 0.025299 -0.208142 0.069557 0.061820 -0.072124 0.307971 -0.476116 0.013623 -0.134073 -0.091906 0.144770 -0.273767 0.152654 0.089761 -0.087451 0.007187 0.507991 -0.238861 0.205243 0.323210 0.119993 -0.417662 -0.065200 -0.119945 -0.062937 -0.475312 -0.263401 0.183626 0.185195 0.097244 -0.224805 -0.220361 -0.018558 -0.178666 0.023619 0.266563 -0.179407 0.101203 -0.033180 0.100944 0.092895 -0.066121 -0.455374 -0.191191 0.121277 0.081616 -0.094489 0.009781 0.315547 -0.303997
If 0.087246 -0.018463 -0.083352 0.181403 -0.040207 -0.016267 -0.058049 -0.036990 0.148182 -0.194178 -0.054688 0.184582 0.075780 -0.047530 -0.125565 0.101927 -0.051602 0.011273 0.233486 -0.163255 0.136066 0.253912 -0.155677 -0.011455 -0.032621 -0.148571 0.063850 0.037693 -0.199604 -0.082437 0.300597 0.534669 0.074452 0.592720 0.061192 -0.054809 0.056878 0.102159 0.291795 0.333691 0.352865 -0.256787 -0.067031 0.281487 -0.025238 0.433908 0.197910 -0.162822 -0.181135 0.043323 0.215881 -0.094271 0.042174 -0.084604 -0.250406 0.102398 -0.220975 -0.160023 -0.006470 -0.184967 0.193341 -0.217770 -0.159121 0.080633 0.154150 0.151141 0.084915 -0.132290 -0.193010 0.467173 0.404226 -0.177009 0.010520 -0.377786 0.189153 -0.173792 0.105076 0.127858 0.029544 -0.041515 -0.140678 -0.074993 -0.263025 -0.232724 -0.247707 0.025914 -0.210656 0.147538 0.116423 0.277911 -0.009018 0.009783 -0.519459 -0.211371 0.172562 -0.164014 -0.011118 0.022139 0.088044 -0.127271
his -0.136330 -0.005460 0.106712 -0.053413 -0.002747 0.050255 -0.043058 -0.043733 -0.142317 -0.042819 -0.172377 -0.028975 -0.017863 -0.189439 -0.174861 -0.031230 0.274148 -0.016843 0.136057 -0.186537 0.101843 0.124098 -0.143727 -0.237968 0.070087 0.211959 -0.067498 -0.061457 -0.207444 -0.179571 0.247083 0.313496 0.163234 0.000111 0.368833 -0.206621 -0.118793 -0.462698 -0.087847 0.042550 0.254322 -0.046966 -0.040058 0.011467 0.152068 0.147381 -0.037492 -0.436350 0.090217 -0.207870 -0.137051 -0.245374 0.064118 0.250002 0.095469 0.257684 -0.431925 -0.014540 -0.023113 -0.003097 0.138306 -0.226339 0.263338 0.076490 -0.238995 0.002074 0.500095 -0.136461 0.287933 0.196878 -0.042940 -0.315162 0.015304 0.071963 -0.117174 -0.376148 -0.234100 0.083959 0.166161 0.031477 -0.175483 -0.098138 0.029658 -0.038287 0.238532 0.327112 0.043403 0.006862 -0.065954 0.078526 0.131800 -0.041546 -0.317661 -0.085177 0.015081 0.110781 -0.135325 -0.044565 0.183521 -0.202617
me -0.084815 -0.025322 -0.035660 0.210716 -0.170414 -0.042219 0.059159 -0.305825 0.049132 -0.179921 -0.084875 -0.085714 0.307442 -0.052397 -0.295408 0.073496 0.179576 -0.097463 0.112025 -0.095026 0.247760 0.189285 -0.297547 -0.142885 -0.168008 -0.139174 -0.040206 -0.282176 -0.358442 0.005019 0.390608 0.438095 -0.084287 0.431711 0.231070 -0.278438 0.006758 -0.055863 0.227490 0.149485 0.263951 0.041938 -0.059137 0.162236 -0.099809 0.177358 -0.079262 -0.249645 0.107962 0.081807 -0.028085 0.021133 -0.005995 0.061771 -0.128114 0.224527 -0.217905 0.055709 0.030296 -0.105797 0.023152 -0.135920 -0.313770 0.197240 0.026935 0.119441 0.324501 -0.177532 0.127798 0.298573 0.059585 -0.349604 0.020401 -0.183961 0.007113 -0.077397 -0.099582 0.069163 0.224614 -0.185984 -0.119609 0.067202 0.086191 -0.025474 0.080055 0.363695 -0.201073 -0.183446 -0.044210 0.003282 0.009198 -0.068099 -0.416560 -0.140004 0.080225 -0.006826 0.108575 -0.025405 0.215319 -0.152724
which 0.132405 -0.051968 0.160621 -0.035229 0.002094 0.072579 -0.132284 -0.054109 0.068848 -0.040597 -0.312633 0.029268 -0.303729 -0.314824 0.005451 0.128107 0.073326 -0.097243 0.236294 -0.228091 0.152553 0.106607 -0.080880 -0.193537 0.141568 0.212621 0.036504 -0.001248 -0.093562 -0.193011 0.287214 0.368873 0.156445 0.052914 0.314648 -0.118630 -0.102450 -0.365843 -0.007720 0.127001 0.379955 -0.102645 -0.088061 0.061179 0.176098 0.244029 -0.141445 -0.460320 0.027368 -0.318730 -0.109017 -0.228489 -0.069245 0.009441 0.010007 0.218142 -0.521197 -0.108677 0.088669 -0.019353 0.284894 -0.356467 0.382715 0.049040 -0.064482 -0.122372 0.403390 -0.245961 0.253367 0.198657 0.119339 -0.110908 0.018506 0.107432 -0.123458 -0.358153 -0.211434 0.016713 0.062733 0.083401 -0.144882 -0.120027 0.046635 -0.152845 0.065119 0.043501 0.082416 0.083797 0.052863 0.236528 0.283346 -0.087838 -0.261112 -0.062769 -0.019971 0.061884 -0.090300 -0.039791 0.129748 -0.043510
just 0.109616 -0.047427 0.048044 0.140482 -0.104242 0.032999 -0.023061 -0.411404 0.253313 -0.187869 -0.210221 -0.198569 -0.023778 -0.265908 -0.125765 0.187659 -0.031163 -0.184389 0.084562 -0.036841 0.336863 0.135359 -0.266144 -0.201202 -0.107520 -0.126284 -0.066000 -0.393773 -0.283435 -0.081454 0.334139 0.494642 -0.024758 0.349357 0.224623 -0.228150 -0.043548 -0.057071 0.216930 0.222325 0.261682 -0.123139 -0.110411 0.176060 -0.107890 0.207284 -0.203761 -0.298784 0.128264 -0.106325 -0.082809 0.085570 -0.141262 -0.095384 -0.162775 0.249877 -0.305915 -0.057794 0.230308 -0.120488 0.137340 -0.325446 -0.178227 0.193037 0.099709 -0.066971 0.230480 -0.295808 0.208411 0.212534 0.046799 -0.149109 0.005342 0.058186 -0.029241 -0.141763 -0.211280 0.005050 0.215059 -0.140421 -0.067199 -0.018072 0.189280 -0.183628 0.116762 0.188820 -0.156922 -0.159679 -0.029311 0.209553 0.276598 -0.192189 -0.314443 -0.098110 -0.033291 0.009514 0.222409 -0.024591 0.238167 -0.000745
one 0.014132 -0.070606 0.015586 0.137454 -0.106996 0.097747 -0.151776 -0.032044 -0.025384 -0.070587 -0.083164 0.155546 -0.073539 -0.150366 -0.058383 0.025323 0.026052 -0.053059 0.365193 -0.207673 0.141486 0.148210 -0.063322 -0.104535 0.008887 0.004517 0.024388 0.042683 -0.206486 -0.127678 0.351504 0.510255 0.139988 0.266016 0.181594 -0.076968 0.000864 -0.134756 0.143026 0.273478 0.357645 -0.158605 -0.150946 0.274544 0.179045 0.354578 0.047824 -0.395382 -0.154420 -0.234509 0.142023 -0.234484 0.081928 -0.096927 -0.066294 0.226652 -0.462630 -0.130083 -0.128894 -0.200238 0.247655 -0.186473 0.104239 0.005357 -0.038662 -0.025514 0.281837 -0.131716 -0.023357 0.325651 0.257357 -0.160793 -0.063667 -0.146341 -0.057141 -0.342852 -0.034118 0.171664 0.120746 0.057886 -0.145694 -0.168813 -0.165223 -0.194616 -0.074981 0.121483 -0.112233 0.248144 0.068931 0.178177 0.094281 -0.100281 -0.470605 -0.086285 0.164882 -0.002660 -0.204998 0.060277 0.168237 -0.220646
would 0.223171 0.011435 0.007741 0.207229 -0.182867 0.044649 -0.039075 -0.476313 0.384157 -0.225559 -0.235494 -0.045606 -0.003102 -0.219233 -0.144998 0.152301 -0.035683 -0.231438 0.188444 -0.044434 0.316447 0.164657 -0.251807 -0.152955 -0.058280 -0.303950 -0.065855 -0.310791 -0.304569 -0.082225 0.488009 0.674427 -0.013417 0.604966 0.121947 -0.238237 0.099860 0.153003 0.446654 0.443979 0.433938 -0.147170 -0.146998 0.285560 -0.126262 0.422772 -0.141777 -0.269372 -0.065627 -0.073362 0.085067 0.098369 -0.112676 -0.237255 -0.438189 0.207234 -0.363986 -0.106143 0.204258 -0.160296 0.113725 -0.404798 -0.346840 0.149884 0.279780 0.091592 0.264285 -0.397132 0.153377 0.376452 0.190842 -0.136036 -0.096897 -0.050264 0.061721 -0.162322 -0.161578 0.059895 0.208492 -0.067010 -0.098982 -0.034316 0.082392 -0.333503 -0.020275 0.088741 -0.284426 -0.063891 0.064428 0.238100 0.209698 -0.188038 -0.495549 -0.143414 0.046049 -0.098274 0.379916 0.047418 0.302538 0.021231
like 0.148091 0.033742 -0.030208 0.236953 -0.179564 0.008021 -0.013748 -0.436379 0.275267 -0.186533 -0.145056 -0.090325 0.132220 -0.146951 -0.121174 0.094643 -0.020047 -0.155066 0.138047 -0.045814 0.262609 0.156973 -0.264236 -0.135174 -0.057516 -0.310602 -0.139937 -0.278644 -0.277604 -0.031317 0.357863 0.546356 -0.029137 0.543675 0.059353 -0.215115 0.089383 0.035038 0.319993 0.303245 0.317888 -0.075583 -0.058503 0.248486 -0.156524 0.317619 -0.140616 -0.206463 -0.000795 -0.022327 0.090635 0.185482 -0.084343 -0.131927 -0.334637 0.198144 -0.319663 -0.061396 0.133637 -0.135676 0.043053 -0.309178 -0.423058 0.217523 0.222802 0.089358 0.262887 -0.241428 0.155926 0.300681 0.142148 -0.137625 -0.125126 -0.042984 0.094759 -0.091081 -0.099736 0.079809 0.233629 -0.043227 -0.113624 -0.027504 0.087391 -0.279683 -0.026474 0.103627 -0.269902 -0.062159 0.023573 0.133423 0.110223 -0.194059 -0.354168 -0.105651 0.043641 -0.066707 0.261224 0.058900 0.309815 -0.040345
should 0.326732 0.141253 0.109674 -0.013316 -0.213382 0.195497 -0.348187 -0.196623 0.091343 -0.033873 -0.299891 0.074941 -0.479373 -0.248666 0.136407 0.072620 -0.067246 -0.178549 0.218568 -0.225684 0.129557 0.050999 0.013610 -0.134308 0.111065 0.068251 0.046520 0.029434 0.065211 -0.043264 0.280977 0.325154 0.172660 0.086542 0.118687 -0.108443 0.061080 -0.051233 0.082432 0.329614 0.356825 0.044768 -0.098523 0.179637 0.113611 0.355643 -0.198049 -0.241359 -0.216611 -0.404774 0.020443 -0.031262 -0.038878 -0.305434 -0.156717 0.187099 -0.588101 -0.082375 0.017652 -0.076171 0.119034 -0.266615 0.187086 -0.074928 0.177125 -0.088301 0.223785 -0.259614 0.189721 0.125178 0.268311 0.089732 -0.153783 0.122436 -0.117728 -0.190123 -0.220227 0.054540 0.108922 0.213387 -0.076835 -0.102696 0.012833 -0.391637 -0.119622 -0.203688 -0.029136 0.161718 0.185330 0.048560 0.242279 -0.229167 -0.223156 -0.032629 0.052243 0.043632 -0.032944 0.094775 0.141310 -0.019212
so 0.326680 -0.027254 0.052955 0.158169 -0.187378 0.130831 -0.291309 -0.334752 0.209918 -0.121070 -0.138485 -0.016942 -0.117359 -0.264980 0.017364 0.089186 -0.089920 -0.185975 0.142067 -0.114651 0.222679 0.188006 -0.161634 -0.162657 -0.104144 -0.169697 0.078719 -0.275796 -0.201776 0.067810 0.227331 0.609602 0.098945 0.363270 0.127720 -0.201323 0.003733 0.044865 0.270475 0.362161 0.293612 -0.016105 -0.219941 0.294929 -0.078315 0.369310 -0.107437 -0.247992 -0.086917 -0.250684 0.006257 -0.030080 -0.112377 -0.298395 -0.215904 0.189087 -0.441666 -0.058622 0.120395 -0.134781 0.150601 -0.236536 -0.136359 0.174429 0.217988 -0.060958 0.134943 -0.324926 0.152222 0.235359 0.242134 -0.047870 -0.094896 -0.067645 0.053032 -0.071932 -0.138391 0.104458 0.206762 -0.046216 -0.077411 -0.060695 0.011131 -0.278525 -0.061419 0.020480 -0.219407 0.083513 0.113882 0.229758 0.213856 -0.217929 -0.443499 -0.125581 -0.031483 -0.113680 0.126551 0.051150 0.271395 0.039315
what 0.088447 -0.136939 0.033548 0.066317 -0.062160 0.020976 -0.127431 -0.186537 0.222447 -0.175981 -0.138003 -0.044445 0.085759 -0.210023 -0.099980 0.133165 0.005420 -0.134618 0.177380 -0.114691 0.182413 0.163522 -0.187744 -0.177312 0.034810 -0.225399 -0.039467 -0.152310 -0.248672 -0.114590 0.315746 0.578222 0.098806 0.479495 0.133776 -0.203960 -0.084761 -0.012981 0.142230 0.224919 0.269175 -0.187484 -0.110045 0.170333 -0.072921 0.307048 -0.095460 -0.329209 0.058329 -0.092456 0.006747 -0.036818 -0.094825 -0.015176 -0.167278 0.184814 -0.320066 -0.133634 0.192953 -0.058711 0.260003 -0.319130 -0.098267 0.206061 0.122401 0.085505 0.301188 -0.185500 0.152547 0.312468 0.199594 -0.124036 -0.015498 -0.109820 0.020893 -0.159607 -0.087601 0.042440 0.211301 -0.125567 -0.158230 -0.072256 -0.045238 -0.198732 0.028134 0.175937 -0.105161 -0.017206 0.052875 0.289845 0.131642 -0.151134 -0.389796 -0.103767 -0.000079 -0.120933 0.113503 -0.033234 0.239365 -0.037759
no 0.106957 -0.115347 0.028194 0.148979 -0.127938 0.175978 -0.204068 -0.152091 0.019953 0.028150 -0.030805 0.044932 -0.043928 -0.212503 -0.001571 -0.018597 -0.050157 -0.104363 0.349476 -0.098960 0.195405 0.180675 -0.184488 -0.129166 0.041734 -0.164706 -0.028333 -0.015070 -0.127568 -0.104893 0.246854 0.554142 0.226812 0.126053 0.209051 -0.079883 -0.186769 -0.166691 0.103093 0.140801 0.252572 -0.204657 -0.198320 0.229449 0.190684 0.317167 -0.069234 -0.488236 -0.097922 -0.290101 0.036380 -0.189505 -0.087113 -0.099417 0.069694 0.262842 -0.590770 -0.093710 -0.132649 -0.150297 0.208068 -0.196890 0.112959 0.155300 -0.026744 -0.070912 0.359151 -0.071126 0.019680 0.176734 0.215086 -0.006122 -0.133893 0.002655 -0.112372 -0.365918 -0.013449 0.103980 0.191274 0.038032 -0.220647 -0.261381 -0.163972 -0.329664 -0.084084 0.098864 -0.169698 0.277461 0.110137 0.138543 0.015915 -0.224977 -0.379302 -0.084158 -0.060763 -0.084852 -0.286544 0.127580 0.248140 -0.137047
page -0.171575 -0.128966 0.144148 -0.000585 0.131106 -0.193155 -0.173122 0.217746 0.084857 -0.258421 -0.058169 0.005828 0.335242 -0.133416 -0.194801 0.071946 0.231852 0.075911 0.096682 -0.385165 0.165390 0.313278 0.009430 -0.301560 -0.123551 0.180915 0.126154 -0.150756 -0.375029 -0.248179 0.365741 0.498200 0.112912 0.523836 0.281121 -0.209150 0.146737 -0.037256 0.119176 0.490040 0.069503 -0.020979 -0.063367 0.190774 -0.038384 0.167799 0.038390 -0.267508 0.083625 0.144084 -0.095827 -0.275989 0.105676 0.352731 -0.247054 0.064460 -0.022560 0.004230 0.011366 -0.039357 0.141199 -0.201789 0.037387 0.097912 -0.080368 0.407215 0.244464 -0.218459 0.057655 0.467974 0.073260 -0.520976 0.263375 -0.358875 0.203532 -0.224427 -0.021953 0.059253 0.003457 -0.120653 -0.223709 0.344043 -0.118622 0.216556 0.216034 0.549213 -0.016154 -0.217368 -0.058884 0.225507 0.044970 0.092949 -0.780669 -0.205756 0.010842 -0.120097 0.291404 -0.106973 0.096590 0.062597
who 0.067811 -0.024428 0.024418 0.138328 -0.224767 0.075135 -0.205501 0.001603 -0.054429 -0.139362 -0.186612 -0.065292 -0.128272 -0.157215 -0.024675 0.075120 -0.055647 -0.049234 0.369952 -0.305676 0.108474 0.099810 -0.076492 -0.082584 -0.069248 0.047371 -0.003635 0.059202 -0.204900 -0.143973 0.274560 0.400435 0.199209 0.335340 0.153211 -0.055218 0.016476 -0.308413 -0.024132 0.112778 0.455876 -0.121026 -0.015131 0.260190 0.038365 0.287597 -0.045043 -0.309485 -0.012222 -0.317046 0.084007 -0.047362 -0.049829 -0.064168 0.089797 0.128825 -0.580560 -0.135930 -0.109397 -0.138313 0.231668 -0.263471 0.049676 0.061462 -0.039923 -0.092369 0.297386 -0.091760 0.127439 0.276160 0.281793 -0.186892 -0.065679 -0.135485 0.003408 -0.221180 -0.052854 0.108489 0.065166 0.047606 -0.222973 -0.121365 -0.033885 -0.246273 -0.139453 -0.044283 -0.066969 0.101873 0.047507 0.043769 0.132893 -0.119293 -0.278082 -0.118990 0.212357 0.135205 -0.218945 -0.060120 0.197450 -0.279251
don't 0.053516 -0.182078 -0.116242 0.300007 -0.096753 -0.010362 -0.064346 -0.427525 0.539787 -0.327691 -0.074544 -0.252170 0.226149 -0.132610 -0.111518 0.290388 -0.186350 -0.251390 0.222744 0.087221 0.277802 0.129128 -0.211797 -0.117964 -0.105641 -0.471679 -0.106571 -0.270986 -0.324687 -0.062583 0.388799 0.759469 0.003520 0.830192 0.027255 -0.178626 0.049002 0.423796 0.445873 0.373338 0.287164 -0.267529 -0.110752 0.361927 -0.303155 0.333902 -0.158420 -0.174095 0.036612 0.093703 0.154814 0.209705 -0.142004 -0.237697 -0.435119 0.143271 -0.140402 -0.286304 0.335804 -0.260753 0.341055 -0.393313 -0.565994 0.264945 0.282147 0.076917 0.077904 -0.211195 0.082775 0.407993 0.223172 -0.108653 -0.001748 -0.225463 0.058816 -0.022266 0.009771 0.033876 0.282794 -0.299824 -0.031807 -0.000742 0.067282 -0.308402 -0.059189 0.216383 -0.261922 -0.104257 -0.030269 0.270646 0.181223 -0.285426 -0.433316 -0.189906 0.046647 -0.123755 0.439568 -0.018869 0.305829 0.076435
he 0.276345 0.113274 0.131481 -0.057757 -0.116766 0.183387 -0.165291 -0.254208 -0.046126 0.096158 -0.345344 -0.032618 -0.334614 -0.333486 0.025159 -0.072809 0.082719 -0.094420 0.051309 -0.174561 0.234996 0.223896 -0.243190 -0.149916 0.095853 0.052152 0.051262 -0.217129 -0.000413 -0.115253 0.133164 0.357942 0.159160 0.029008 0.225488 -0.242587 -0.233922 -0.417818 -0.074614 0.059093 0.211243 -0.078259 -0.171659 0.046567 0.076217 0.304587 -0.119636 -0.436278 -0.000353 -0.360146 -0.192127 -0.156675 -0.159879 -0.024093 0.110985 0.274474 -0.588057 0.018755 0.116425 0.077588 0.054123 -0.315190 0.248013 0.180456 0.043432 -0.085579 0.379163 -0.278625 0.283429 0.124574 0.119778 0.053343 -0.085548 0.262987 -0.024151 -0.238086 -0.251624 0.016038 0.114682 0.061892 -0.200023 -0.204054 0.029156 -0.290691 0.055523 -0.040689 -0.033947 0.004493 0.157276 0.206254 0.237592 -0.090838 -0.222116 -0.050754 -0.167646 -0.017465 -0.110844 0.101472 0.146805 -0.077171
other -0.184286 -0.121180 -0.055544 0.162903 0.058860 0.022849 -0.051488 0.172560 -0.023887 -0.137835 0.020702 0.162123 0.073226 -0.045369 -0.149185 0.067353 0.071733 -0.023817 0.372227 -0.156486 0.055440 0.127749 -0.010401 -0.042339 0.032867 0.057256 -0.008280 0.158475 -0.171684 -0.130900 0.235356 0.394326 0.073424 0.251985 0.145596 -0.059526 0.050491 -0.079930 0.136729 0.205442 0.229039 -0.128620 -0.086318 0.237272 0.175473 0.273246 0.156449 -0.227101 -0.129904 -0.082205 0.157169 -0.318316 0.167751 0.046560 -0.100252 0.134325 -0.247754 -0.186705 -0.130414 -0.154845 0.225265 -0.145843 0.066777 -0.002870 -0.087357 0.011745 0.190065 0.003559 -0.048608 0.338950 0.220028 -0.264908 0.011796 -0.348814 0.061619 -0.262089 0.075483 0.170608 0.060134 0.024328 -0.160714 -0.121007 -0.279680 -0.107959 -0.138763 0.199614 -0.021478 0.250208 -0.004196 0.163311 -0.064268 0.021228 -0.460277 -0.208671 0.161561 -0.008562 -0.144226 -0.012499 0.160675 -0.193947
some -0.036973 0.003927 0.072638 0.040104 -0.072998 0.078886 -0.081562 -0.040941 -0.075065 -0.059924 -0.191435 0.079079 -0.104464 -0.132970 -0.072546 0.023343 0.093370 -0.082493 0.277027 -0.196492 0.092006 0.053595 -0.044523 -0.111011 0.004050 0.166211 -0.024436 0.014773 -0.178405 -0.169027 0.312511 0.311510 0.098191 0.135414 0.226731 -0.084318 -0.016383 -0.248817 0.048169 0.160973 0.386162 -0.088684 -0.069211 0.141465 0.149122 0.175603 -0.047181 -0.332065 -0.007636 -0.229811 0.006050 -0.181549 0.052849 0.002673 0.009828 0.169843 -0.429268 -0.085185 -0.098143 -0.119071 0.224081 -0.230657 0.167099 -0.030437 -0.107210 -0.038750 0.328301 -0.177923 0.145455 0.195906 0.119639 -0.227884 -0.053051 -0.049506 -0.089451 -0.325771 -0.128569 0.085186 0.099946 0.085280 -0.121455 -0.108410 0.008682 -0.104236 0.007590 0.129438 -0.015328 0.107158 -0.029028 0.063252 0.115955 -0.071887 -0.280839 -0.101886 0.183088 0.145809 -0.088594 -0.010445 0.193778 -0.188078
edit -0.107093 -0.112814 0.040758 0.092359 0.024552 -0.108042 -0.136926 -0.000428 0.108350 -0.161318 -0.138877 -0.093979 0.231775 -0.039415 -0.175281 0.154196 0.133513 0.069318 0.139429 -0.229110 0.184540 0.160634 -0.066467 -0.265130 -0.052418 0.079538 -0.022762 -0.127887 -0.296572 -0.077139 0.339247 0.397816 0.063885 0.442879 0.191584 -0.163420 0.022110 -0.074940 0.097006 0.246072 0.260196 -0.018451 0.009378 0.129661 0.012418 0.218286 -0.024385 -0.265847 0.073248 0.122174 -0.000973 -0.119786 0.014667 0.131228 -0.150455 0.104269 -0.155463 -0.098871 0.045389 -0.043297 0.254888 -0.194573 -0.047646 0.104115 -0.071936 0.168186 0.295315 -0.124406 0.059244 0.370321 0.083607 -0.373410 0.138926 -0.172359 0.074828 -0.184901 0.008423 0.047105 0.151351 -0.105913 -0.100120 0.130028 0.038509 0.017058 0.078990 0.321782 -0.040239 -0.085771 -0.059513 0.086028 0.113250 0.008193 -0.475083 -0.152220 0.107759 0.012779 0.109490 -0.083514 0.087808 -0.007755
- 0.056179 -0.040330 0.082259 -0.028934 -0.009403 0.012968 -0.066029 -0.055153 -0.007037 -0.067307 -0.161787 -0.019266 -0.153680 -0.128710 -0.063528 0.043491 0.093486 0.003285 0.009339 -0.161595 0.118720 0.142388 -0.050082 -0.174144 0.044313 0.048128 0.007186 -0.091575 -0.118020 -0.096272 0.156543 0.165542 0.094658 0.036830 0.152297 -0.163463 -0.061440 -0.140094 0.018367 0.096111 0.126730 -0.036731 -0.064828 0.058773 0.030076 0.100575 -0.006408 -0.216057 0.020109 -0.106064 -0.071713 -0.083779 -0.004079 0.095390 -0.035502 0.070433 -0.169641 -0.006272 0.125357 0.014936 0.074023 -0.147493 0.159764 0.067704 -0.057289 0.000072 0.172589 -0.154720 0.066058 0.142333 0.025241 -0.092790 0.056387 0.024004 -0.035867 -0.127904 -0.125481 0.022087 0.022886 -0.025340 -0.098614 -0.024090 -0.029536 -0.032552 0.161256 0.090176 0.041781 -0.035882 0.072868 0.143144 0.129608 0.000939 -0.165609 -0.023430 -0.068661 -0.007747 -0.065672 -0.043568 0.072613 -0.048723
see 0.196731 -0.115474 -0.028469 0.256913 -0.195087 0.048030 -0.196632 -0.370459 0.436014 -0.262424 -0.092905 -0.140964 0.030206 -0.235618 -0.027909 0.214878 -0.154133 -0.250484 0.192794 -0.014921 0.266498 0.228083 -0.213870 -0.159264 -0.067205 -0.425162 -0.059101 -0.248535 -0.270983 -0.030147 0.315980 0.794617 0.060315 0.634866 0.108979 -0.229320 0.037590 0.258728 0.345512 0.384754 0.246663 -0.162367 -0.149595 0.385418 -0.228108 0.381061 -0.198102 -0.308351 -0.067451 -0.144404 0.011976 0.121059 -0.115224 -0.255107 -0.349680 0.243151 -0.340453 -0.209925 0.256580 -0.235078 0.299795 -0.324356 -0.374559 0.268965 0.238699 -0.007560 0.092625 -0.207146 0.095382 0.366824 0.274766 -0.009485 -0.071611 -0.187707 0.046701 -0.014707 -0.072488 0.066182 0.251164 -0.153183 -0.101208 -0.046440 -0.047524 -0.347001 -0.026831 0.209911 -0.240095 -0.000896 0.096172 0.267873 0.156322 -0.333741 -0.452925 -0.102371 -0.037988 -0.180616 0.220162 0.084663 0.264815 0.048584
their -0.055212 -0.074636 0.088907 0.015380 0.037936 0.069954 -0.207506 0.113754 -0.048898 -0.112503 -0.143623 -0.046225 -0.088403 -0.120638 0.006900 0.076044 0.138450 0.000435 0.223804 -0.225400 0.050325 0.075001 0.029601 -0.206632 0.110545 0.184050 -0.023659 0.084040 -0.091694 -0.150205 0.170991 0.255061 0.211151 0.036946 0.254615 -0.067231 -0.042152 -0.218307 -0.054211 0.126891 0.231056 0.042080 -0.034419 0.099712 0.208443 0.143546 -0.085931 -0.290145 -0.002920 -0.275289 -0.041765 -0.166322 0.022309 0.077321 0.019137 0.157732 -0.367275 -0.092847 -0.055165 -0.057241 0.251100 -0.163073 0.275457 -0.027696 -0.166287 -0.004175 0.350321 -0.063348 0.202482 0.168002 0.074902 -0.220734 0.018982 -0.005545 -0.079876 -0.273552 -0.089598 0.065988 0.136432 0.106998 -0.155438 -0.066260 -0.066477 -0.095561 0.078108 0.198746 0.073181 0.090837 -0.018884 0.069182 0.113206 -0.132103 -0.313060 -0.056493 0.038294 0.089495 -0.111917 -0.081482 0.183706 -0.065107
we 0.249619 -0.112255 -0.047993 0.336034 -0.389904 0.078882 -0.338000 -0.345623 0.313512 -0.287803 0.015950 -0.158353 0.037265 -0.128000 0.118546 0.157384 -0.261339 -0.275252 0.185111 -0.076504 0.120888 0.077494 -0.084930 -0.082527 -0.131975 -0.488296 -0.041224 -0.072552 -0.284884 0.163121 0.218484 0.657374 0.136744 0.617616 -0.037147 -0.224996 0.131173 0.347203 0.299916 0.373104 0.248231 0.042709 -0.059740 0.525816 -0.316816 0.427240 -0.236832 -0.084304 -0.166378 -0.192985 0.106760 0.272843 -0.099607 -0.434988 -0.366832 0.150683 -0.373608 -0.202534 0.185378 -0.282830 0.256517 -0.133690 -0.515992 0.258561 0.275094 -0.071139 -0.074501 -0.122459 0.116024 0.308786 0.370988 0.077211 -0.145404 -0.257527 0.075660 0.191043 -0.037159 0.169170 0.222945 -0.097210 -0.058341 0.061771 -0.065643 -0.364684 -0.135687 0.029416 -0.238486 0.168019 0.126199 0.021030 0.093547 -0.429822 -0.366675 -0.109685 0.073317 -0.134303 0.104569 0.051540 0.316108 0.033663
were -0.048400 -0.019239 0.107702 0.032846 -0.030948 0.044224 -0.174388 0.136205 -0.117153 -0.145233 -0.183926 0.012158 -0.163192 -0.186260 -0.041099 0.064588 0.105524 -0.002467 0.248745 -0.259416 0.091324 0.061926 0.082166 -0.170889 -0.007751 0.336671 -0.002765 0.055188 -0.204362 -0.148836 0.194232 0.266422 0.185397 -0.048433 0.284426 -0.129163 0.027353 -0.373231 -0.105031 0.155114 0.294373 0.027769 -0.025076 0.231450 0.197797 0.168548 -0.020183 -0.295240 0.009055 -0.363608 -0.015808 -0.255667 0.082228 0.046305 0.024922 0.272779 -0.430336 -0.106566 -0.106747 -0.103200 0.231599 -0.198005 0.311943 -0.048459 -0.176069 -0.146144 0.257296 -0.133145 0.222587 0.175017 0.085123 -0.214494 -0.033022 -0.067497 -0.026222 -0.298029 -0.144439 0.151796 0.072871 0.102088 -0.163298 -0.062258 -0.080767 -0.041457 0.091618 0.170630 0.107000 0.215170 -0.038715 0.082300 0.179610 -0.114548 -0.316722 -0.046652 0.097872 0.145050 -0.181209 -0.089322 0.171758 -0.172563
than -0.080681 0.038762 -0.060102 0.002531 0.034892 0.112927 0.085806 -0.027446 -0.148698 0.017891 -0.043617 0.256897 0.107947 -0.142845 -0.214691 -0.118919 0.131553 -0.045009 0.169261 -0.015928 -0.010996 0.042061 -0.209622 -0.018151 0.086168 0.021614 -0.132736 0.006938 -0.240590 -0.109751 0.190604 0.364799 0.124201 -0.021779 0.210672 -0.077321 -0.172438 -0.343473 0.114877 0.075827 0.293440 -0.193338 -0.111831 0.070427 0.268949 0.221550 0.085267 -0.310325 -0.057906 -0.173544 0.040878 -0.259929 0.072002 0.113422 0.026887 0.226358 -0.361360 -0.006738 -0.168024 -0.050725 0.130262 -0.193075 0.250793 0.126788 -0.150507 -0.059281 0.393005 -0.130974 0.099123 0.213255 0.092673 -0.274150 -0.064613 -0.104105 -0.040749 -0.414300 -0.162657 0.182966 0.118167 0.143406 -0.186262 -0.272220 -0.108571 -0.122311 -0.038920 0.182390 -0.124088 0.250480 -0.012038 0.110405 0.012857 -0.018846 -0.277913 -0.107559 0.078421 0.049241 -0.285807 0.032511 0.194225 -0.278032
people -0.022275 -0.058419 0.076594 0.106469 -0.118343 0.054181 -0.183178 0.027582 -0.042328 -0.141957 -0.165306 -0.012752 -0.081369 -0.147902 -0.061938 0.091716 0.064495 -0.074284 0.380338 -0.256805 0.080454 0.069265 -0.052042 -0.192081 0.021994 0.129132 -0.056685 0.118029 -0.233236 -0.159117 0.332271 0.418934 0.194777 0.199015 0.270403 -0.062535 0.023038 -0.295833 0.018265 0.155683 0.470449 -0.054743 0.003928 0.221118 0.143922 0.249062 -0.072137 -0.376827 -0.027762 -0.320705 0.042954 -0.148778 0.067323 -0.014243 -0.016405 0.195081 -0.537303 -0.143535 -0.098569 -0.164327 0.292835 -0.223915 0.162191 -0.003520 -0.127170 -0.087551 0.407789 -0.103140 0.204886 0.258387 0.205226 -0.279077 -0.056895 -0.127581 -0.116828 -0.303460 -0.132370 0.121583 0.141619 0.083015 -0.154108 -0.120517 -0.015814 -0.171831 -0.030296 0.134703 -0.022082 0.166765 -0.023645 0.050721 0.137466 -0.150130 -0.304872 -0.095499 0.216551 0.146976 -0.181190 -0.060570 0.235131 -0.249425
talk -0.370212 -0.141900 0.137260 -0.061079 0.247285 -0.274075 -0.096199 0.331232 0.086766 -0.244647 0.098238 -0.069446 0.615395 0.097699 -0.227987 0.031398 0.272470 0.238090 -0.024194 -0.359124 0.065455 0.227396 0.080064 -0.267722 -0.119526 0.246401 0.083991 -0.157065 -0.349126 -0.241771 0.270623 0.187416 0.021316 0.507850 0.152953 -0.116943 0.178861 0.101904 0.080248 0.363793 -0.129883 0.046238 0.060343 0.058086 -0.072483 -0.121763 0.106339 -0.048554 0.205636 0.471291 -0.027591 -0.124065 0.137937 0.559487 -0.254792 -0.095167 0.389183 0.033366 -0.032636 0.018475 0.099787 -0.009682 -0.070175 0.022376 -0.156524 0.618401 0.132939 -0.071951 -0.079375 0.337788 -0.169673 -0.596723 0.368045 -0.370218 0.206789 -0.119367 0.058392 -0.002368 -0.038730 -0.191919 -0.128581 0.464322 0.017829 0.503749 0.278642 0.644048 0.067812 -0.405356 -0.188421 0.074312 -0.042123 0.194828 -0.653548 -0.168563 -0.004474 -0.088180 0.448857 -0.213706 -0.038811 0.169109
also 0.170022 0.014561 0.081558 -0.011536 -0.086667 0.099441 -0.100419 -0.200423 0.138906 -0.000162 -0.197196 -0.004645 -0.256974 -0.226754 0.035040 0.089759 -0.004443 -0.160454 0.161755 -0.016030 0.125231 0.076679 -0.141015 -0.141723 0.092797 -0.088387 -0.010747 -0.038000 -0.002433 -0.110072 0.207759 0.317102 0.090871 0.044953 0.156645 -0.063776 -0.085389 -0.121965 0.088040 0.110072 0.275980 -0.138195 -0.112922 0.023559 0.060252 0.206621 -0.112543 -0.331348 -0.047264 -0.256394 -0.045056 -0.054036 -0.085352 -0.123755 -0.056594 0.146832 -0.380595 -0.085304 0.130662 -0.035913 0.159276 -0.261212 0.132571 0.060722 0.078892 -0.082829 0.301227 -0.197266 0.179373 0.083846 0.087338 0.060066 -0.092668 0.155980 -0.152098 -0.179684 -0.180734 -0.015629 0.100257 0.047436 -0.062357 -0.197504 0.056813 -0.253912 0.010437 -0.073412 -0.045182 0.057507 0.084829 0.149706 0.203269 -0.130873 -0.104615 0.020315 -0.032611 0.014593 0.001387 0.041568 0.134907 -0.044019
I'm 0.099618 -0.009003 0.072504 0.041053 -0.069148 0.046277 -0.066836 -0.188884 0.136659 -0.134709 -0.164647 -0.064223 -0.048392 -0.194251 -0.059749 0.101461 -0.009591 -0.053420 0.095975 -0.098499 0.182439 0.136243 -0.182367 -0.060514 -0.086365 -0.038683 -0.002425 -0.206358 -0.198759 -0.074006 0.193705 0.378707 0.039493 0.273729 0.131119 -0.108459 -0.034218 -0.078925 0.120571 0.149275 0.250573 -0.152571 -0.148174 0.113947 -0.028573 0.246156 0.011564 -0.220862 0.042838 -0.112965 0.021123 0.026268 -0.089481 -0.089861 -0.062446 0.126380 -0.208782 -0.045197 0.109105 -0.042270 0.155514 -0.224972 -0.046501 0.130629 0.093414 0.009309 0.159004 -0.219945 0.101121 0.256056 0.183681 -0.137320 0.020759 -0.048757 0.056422 -0.130678 -0.121130 -0.005835 0.094737 -0.101195 -0.067223 -0.102890 0.052794 -0.136043 -0.005984 0.045148 -0.120649 -0.090766 0.010703 0.227620 0.180444 -0.053308 -0.309263 -0.116058 0.091741 0.001526 0.064825 -0.031700 0.116397 -0.088127
This 0.157446 0.042528 0.198183 -0.163769 -0.051711 0.134298 -0.138496 -0.013850 -0.154941 0.091612 -0.319673 0.143834 -0.431072 -0.295620 0.014065 -0.011891 0.120454 -0.059862 0.201067 -0.249479 0.138023 0.140513 -0.164505 -0.102612 0.068234 0.278343 0.121197 -0.003243 0.005701 -0.220885 0.144164 0.247187 0.151743 -0.070772 0.300094 -0.056623 -0.186660 -0.521670 -0.123121 0.040424 0.327166 -0.159092 -0.184288 -0.080610 0.263016 0.214055 0.019743 -0.475025 -0.017788 -0.413306 -0.150361 -0.281929 -0.053256 0.004587 0.225579 0.155793 -0.553438 -0.007940 0.018092 0.091123 0.173976 -0.284740 0.513575 0.000458 -0.086475 -0.107140 0.404934 -0.260302 0.215582 0.141634 0.177951 -0.076936 0.004344 0.165488 -0.114712 -0.338371 -0.233776 -0.008866 0.014142 0.120315 -0.169833 -0.261142 0.001545 -0.131567 0.002578 -0.077385 0.055165 0.050724 0.109997 0.237922 0.235419 0.089381 -0.242293 -0.047311 0.034898 0.120443 -0.233996 0.004128 0.058458 -0.172584
Wikipedia -0.087610 -0.097736 0.097144 -0.016156 0.030507 -0.014674 -0.151460 0.200445 -0.035461 -0.080123 -0.136507 0.057088 -0.031128 -0.089625 -0.089860 0.111049 0.139363 -0.018283 0.245012 -0.233697 0.045022 0.080097 0.044679 -0.197961 0.104415 0.182254 -0.028389 0.141224 -0.152798 -0.174735 0.224927 0.255704 0.146066 0.095767 0.240230 -0.090565 0.018940 -0.272362 -0.027725 0.113939 0.289877 -0.027400 0.015389 0.098539 0.160003 0.162247 -0.031411 -0.313376 -0.013203 -0.168792 -0.029789 -0.274668 0.065069 0.112608 0.008387 0.108309 -0.288083 -0.110584 -0.048015 -0.006174 0.258938 -0.203516 0.276933 0.020617 -0.162967 -0.011945 0.321925 -0.068397 0.153255 0.199696 0.070889 -0.240883 0.044200 -0.092883 -0.052406 -0.241318 -0.052132 0.066980 0.074076 0.073918 -0.147957 -0.055679 -0.071417 0.009602 0.038877 0.190455 0.117478 0.108528 0.005164 0.084202 0.069759 -0.032537 -0.281789 -0.058062 0.087845 0.112145 -0.120784 -0.090393 0.109653 -0.090740
You 0.023638 -0.160197 -0.057706 0.288092 -0.258695 0.003265 -0.214195 0.041912 0.189143 -0.259422 0.092797 0.036867 0.066349 -0.028558 -0.004397 0.139928 -0.189657 -0.160102 0.272485 -0.159405 -0.008723 0.070770 0.058213 -0.046102 -0.065882 -0.298739 -0.054608 0.231087 -0.240659 0.035016 0.241002 0.436098 0.158051 0.457959 0.051719 -0.102816 0.210415 0.315673 0.191668 0.224650 0.256167 -0.061318 0.065505 0.430747 -0.131726 0.258371 -0.104393 -0.092255 -0.233801 -0.123186 0.190339 0.083778 0.091861 -0.264090 -0.211811 0.084601 -0.267319 -0.220154 -0.038165 -0.307255 0.261292 -0.051766 -0.278758 0.063295 0.042139 -0.025308 -0.099012 0.043647 -0.027084 0.295811 0.340081 -0.008875 -0.059941 -0.413919 -0.021274 0.082676 0.096180 0.147109 0.059072 -0.030451 -0.100855 0.038022 -0.219449 -0.183722 -0.131826 0.144454 -0.131634 0.263597 0.129052 -0.050855 -0.132623 -0.257725 -0.295058 -0.117268 0.177610 -0.032081 -0.118909 -0.006709 0.219763 -0.066661
there 0.278915 -0.039652 0.088702 0.017564 -0.126222 0.183502 -0.288837 -0.140330 0.130365 0.043974 -0.186435 -0.007046 -0.279037 -0.293190 0.145302 0.043605 -0.090330 -0.148063 0.293916 -0.131562 0.131468 0.115663 -0.109136 -0.148215 0.167828 -0.112894 -0.002350 0.047807 0.004250 -0.113418 0.188016 0.475142 0.264450 0.049155 0.144075 -0.106896 -0.160612 -0.234650 0.013115 0.115675 0.331875 -0.200146 -0.110655 0.159086 0.094833 0.315001 -0.149292 -0.464221 -0.081365 -0.404376 -0.041931 -0.153223 -0.155756 -0.123874 0.054866 0.210600 -0.644085 -0.171446 0.039469 -0.037545 0.305647 -0.344060 0.235918 0.183157 0.064439 -0.148790 0.362632 -0.207352 0.183464 0.103763 0.224258 0.123840 -0.150324 0.145960 -0.100402 -0.304885 -0.130260 0.036591 0.153787 0.098138 -0.159788 -0.269847 -0.040598 -0.342144 -0.054757 -0.089014 -0.046308 0.264925 0.146172 0.208530 0.199001 -0.237354 -0.182302 0.013599 -0.066532 -0.020413 -0.223264 0.079296 0.185284 -0.037259
am 0.043633 -0.068929 0.061905 0.040140 -0.046003 0.017551 0.046157 -0.443764 0.260612 -0.098387 -0.222300 -0.227564 -0.053723 -0.245510 -0.108017 0.150512 0.000252 -0.220809 -0.008040 0.098145 0.236540 0.039691 -0.239292 -0.131007 0.005046 -0.160380 -0.098529 -0.365898 -0.210361 -0.033036 0.212314 0.325835 -0.033593 0.123271 0.177022 -0.187294 -0.092048 0.024822 0.174182 0.099745 0.179051 -0.120110 -0.128991 0.067494 -0.089119 0.160693 -0.231056 -0.214776 0.156146 -0.091434 -0.120648 0.102334 -0.144409 -0.079665 -0.147677 0.160439 -0.204194 -0.047997 0.287423 -0.021314 0.146266 -0.276394 -0.094526 0.153971 0.074613 -0.146600 0.191037 -0.233759 0.262187 0.072896 -0.063440 -0.077881 0.050513 0.128982 -0.113736 -0.104012 -0.242233 -0.055701 0.155861 -0.149804 0.030216 -0.009297 0.264453 -0.190065 0.159287 0.147102 -0.098830 -0.215282 -0.045017 0.168743 0.280295 -0.189853 -0.074579 -0.064165 -0.071579 0.010104 0.211437 -0.060016 0.137770 0.014497
being 0.149612 0.039859 0.085072 -0.073753 -0.182709 0.085712 -0.063663 -0.070943 -0.087085 0.008057 -0.265129 0.068827 -0.231055 -0.177935 -0.095672 0.026039 0.110630 -0.031808 0.137720 -0.165477 0.158352 0.118776 -0.219687 -0.090854 -0.015746 0.136396 0.050347 -0.044943 -0.137817 -0.077207 0.224171 0.244300 0.090327 0.094002 0.236894 -0.139757 -0.143896 -0.387031 -0.003884 -0.057117 0.396275 -0.151498 -0.037192 0.044779 0.081405 0.248979 0.072802 -0.321437 -0.023803 -0.256544 -0.068827 -0.146541 -0.069964 -0.007337 0.145925 0.170304 -0.420652 0.026882 0.022096 0.037400 0.076738 -0.144634 0.243716 0.092158 -0.039279 -0.099237 0.352864 -0.239431 0.133010 0.182143 0.150783 -0.138968 0.007999 0.011315 -0.041939 -0.158807 -0.251363 0.023922 -0.012355 -0.004363 -0.141857 -0.184513 0.043226 -0.071184 0.021883 -0.050779 -0.031135 0.014658 0.100073 0.125135 0.180117 0.057508 -0.171398 -0.043180 0.095005 0.124447 -0.228106 -0.033907 0.060795 -0.260434
may 0.208133 0.017343 0.004556 0.129306 -0.175484 0.072647 -0.156105 -0.212514 0.140360 -0.097763 -0.141527 0.029601 -0.089708 -0.086711 -0.024194 0.045208 -0.050860 -0.143770 0.197116 -0.133196 0.130985 0.073661 -0.040921 -0.052154 -0.006734 -0.174107 0.053989 -0.048334 -0.112055 0.069356 0.316009 0.350915 0.036355 0.375219 0.066582 -0.100640 0.061710 0.154706 0.249417 0.311570 0.309525 -0.074795 -0.108767 0.231259 -0.010974 0.366952 -0.053719 -0.114212 -0.131912 -0.089606 0.126912 0.027170 -0.049674 -0.258211 -0.228358 0.098390 -0.339354 -0.103801 0.047754 -0.115716 0.120105 -0.142447 -0.169736 -0.018023 0.224312 0.079453 0.111475 -0.216156 -0.001249 0.270422 0.252886 -0.057372 -0.016774 -0.104231 0.008932 -0.092398 -0.044030 0.078951 0.065216 -0.034587 -0.029212 -0.030981 -0.065791 -0.215255 -0.143292 -0.045947 -0.139578 0.015543 0.096531 0.079417 0.097111 -0.143114 -0.360552 -0.119589 0.111853 -0.051046 0.102856 0.042129 0.135696 -0.022804
then 0.160156 0.026821 0.027253 0.065781 -0.018282 -0.008304 -0.093485 -0.063763 0.096224 -0.159208 -0.212777 0.081696 -0.148818 -0.190196 -0.038475 0.118750 0.029175 -0.064199 0.131497 -0.173439 0.153871 0.196893 -0.040315 -0.135504 0.038133 0.058973 0.068504 -0.035067 -0.097399 -0.101158 0.287900 0.389050 0.060060 0.272820 0.155182 -0.139842 0.024296 -0.057322 0.110247 0.258839 0.245702 -0.033178 -0.059450 0.183357 0.017444 0.322140 -0.046787 -0.237914 -0.064651 -0.151475 -0.013777 -0.138905 0.015578 -0.034126 -0.217381 0.174721 -0.306021 -0.074211 0.081976 -0.075912 0.111049 -0.264729 0.053278 0.032705 0.091447 0.015260 0.171465 -0.200140 0.080686 0.276042 0.215265 -0.095676 -0.001071 -0.130242 0.068259 -0.153663 -0.079181 0.061613 0.016969 0.020723 -0.113148 0.042144 -0.081599 -0.176250 -0.013713 0.041581 -0.052187 0.058066 0.076093 0.204716 0.138507 -0.107757 -0.313246 -0.080598 0.005477 -0.082755 0.045490 0.026720 0.106317 -0.024287
up 0.011888 0.049003 0.071189 0.049560 -0.154851 0.064635 -0.089164 -0.205212 -0.083949 -0.100367 -0.180713 -0.068195 -0.029981 -0.132803 -0.104748 0.021099 0.083023 -0.065103 0.083942 -0.243675 0.214653 0.142236 -0.120974 -0.108435 -0.131570 0.126258 0.078718 -0.187167 -0.178672 -0.085314 0.273598 0.311500 0.047506 0.296307 0.165537 -0.189179 0.043971 -0.179259 0.041297 0.172792 0.247729 0.027113 -0.113343 0.116520 -0.010592 0.156492 -0.085594 -0.207951 0.090209 -0.121248 -0.084330 -0.050056 -0.017690 0.058375 -0.001638 0.185942 -0.373570 0.001655 0.023168 -0.058796 0.052653 -0.169654 -0.031199 0.044157 0.006689 0.027668 0.181966 -0.183773 0.147480 0.239314 0.085308 -0.264287 0.035279 -0.013829 0.003959 -0.184812 -0.164472 0.041699 0.114502 -0.045452 -0.104274 0.066736 0.098060 -0.088887 0.087780 0.172810 -0.095772 -0.119849 -0.040333 0.005749 0.086386 -0.078596 -0.376350 -0.179333 0.111050 0.036400 0.091942 -0.003483 0.105742 -0.087606
know 0.161918 -0.114025 -0.124521 0.241688 -0.123019 0.012568 -0.114018 -0.424478 0.458974 -0.224111 -0.083088 -0.240395 0.157084 -0.129534 -0.037846 0.212675 -0.183898 -0.210819 0.166490 0.098038 0.260319 0.140073 -0.219558 -0.074059 -0.047700 -0.468918 -0.059310 -0.255327 -0.216361 -0.026157 0.302027 0.629266 -0.010273 0.728514 -0.045705 -0.169272 -0.019878 0.321544 0.342674 0.286013 0.206469 -0.218001 -0.100548 0.307688 -0.300140 0.294443 -0.140728 -0.159376 0.033884 0.034019 0.113259 0.230473 -0.223767 -0.223753 -0.327764 0.131299 -0.178012 -0.230081 0.315853 -0.175298 0.252310 -0.336749 -0.523443 0.305318 0.310645 0.066117 0.086026 -0.188216 0.079573 0.298295 0.200904 0.019457 -0.041839 -0.109274 0.086718 0.037963 0.005168 0.027444 0.258358 -0.238207 -0.054832 -0.017659 0.047999 -0.315923 -0.097380 0.089502 -0.249648 -0.075337 0.043421 0.253380 0.159191 -0.254789 -0.288741 -0.097851 -0.029534 -0.148844 0.356202 0.019924 0.241629 0.088829
think 0.131715 -0.121704 -0.018281 0.188582 -0.114722 0.066643 -0.056752 -0.421847 0.432384 -0.195968 -0.116608 -0.193575 -0.001128 -0.240187 -0.039480 0.231717 -0.122144 -0.279968 0.156423 0.128991 0.216729 0.048760 -0.196048 -0.150184 0.008986 -0.388739 -0.134075 -0.226491 -0.222400 -0.042408 0.241006 0.606604 0.051986 0.361619 0.099243 -0.190704 -0.028734 0.167403 0.294929 0.213602 0.253264 -0.191112 -0.136985 0.230210 -0.160529 0.290922 -0.234311 -0.256088 0.020521 -0.134166 0.032264 0.114503 -0.144678 -0.237822 -0.267375 0.192095 -0.250750 -0.191262 0.316098 -0.140861 0.260107 -0.374863 -0.274974 0.252915 0.201697 -0.120845 0.169388 -0.224254 0.222824 0.212791 0.126904 0.044136 -0.077393 0.017849 -0.056025 -0.066784 -0.130499 0.013802 0.259087 -0.153014 -0.012019 -0.109304 0.117616 -0.327364 0.051391 0.092441 -0.166180 0.007183 0.007882 0.251919 0.260402 -0.314495 -0.217742 -0.057090 -0.066870 -0.064928 0.221446 0.000093 0.268678 0.052474
It 0.209774 0.011686 0.104236 -0.030738 -0.095284 0.100373 -0.073108 -0.275708 0.083997 0.027306 -0.227902 -0.012620 -0.160072 -0.292328 -0.024661 0.028716 0.066522 -0.130312 0.091029 -0.114556 0.183955 0.116741 -0.229449 -0.130380 0.066880 -0.039988 0.023068 -0.172929 -0.112665 -0.105149 0.197161 0.399213 0.085397 0.160882 0.207513 -0.163064 -0.154519 -0.262562 0.075446 0.128413 0.240627 -0.128952 -0.176769 0.020547 0.050159 0.263621 -0.107611 -0.386635 0.026909 -0.221689 -0.133360 -0.058572 -0.156893 -0.021251 -0.006144 0.184468 -0.430532 -0.015732 0.130193 0.026932 0.103434 -0.308364 0.123589 0.152110 0.054675 -0.010606 0.345269 -0.257092 0.183552 0.169883 0.133586 -0.072429 -0.038474 0.140851 -0.032538 -0.247185 -0.212831 0.002367 0.121747 0.031498 -0.132972 -0.135221 0.064301 -0.174444 0.055058 0.008407 -0.097518 -0.041864 0.063986 0.245622 0.224362 -0.077081 -0.278002 -0.038000 -0.092070 -0.035605 0.000013 0.044264 0.145037 -0.040295
only 0.184702 0.026883 0.128337 -0.006169 -0.150149 0.171881 -0.239161 -0.126316 -0.015006 -0.000069 -0.284342 -0.012889 -0.335391 -0.277878 0.058433 0.034017 -0.026476 -0.085314 0.243969 -0.253892 0.182333 0.133587 -0.098552 -0.091204 0.009822 0.100130 0.082620 -0.072195 -0.078125 -0.159036 0.237372 0.371157 0.168372 0.152801 0.178744 -0.088261 -0.062055 -0.277243 -0.011062 0.167603 0.353774 -0.085220 -0.173998 0.140726 0.138424 0.268095 -0.119630 -0.385866 -0.038935 -0.394389 -0.050121 -0.129218 -0.097387 -0.129929 0.096247 0.175864 -0.590049 -0.043231 -0.003583 -0.031887 0.175463 -0.281883 0.234616 0.013146 0.016411 -0.102144 0.283971 -0.237517 0.169974 0.207695 0.222702 -0.041452 -0.082827 0.111743 -0.086507 -0.292025 -0.171760 0.044894 0.079446 0.077545 -0.146578 -0.170311 0.022680 -0.282046 -0.049661 -0.096974 -0.027856 0.051944 0.109533 0.150855 0.229142 -0.093870 -0.295211 -0.085880 0.068726 0.075345 -0.136042 0.029679 0.129069 -0.146066
use -0.132536 0.049759 -0.017028 0.016276 0.027379 -0.071680 0.020792 0.194822 -0.089246 -0.126843 0.006767 0.156024 0.032738 0.074344 -0.123159 0.044212 0.133656 0.060406 0.095374 -0.138961 0.034818 0.098916 0.010711 -0.028637 -0.140306 0.277544 0.095065 0.057583 -0.097610 -0.141713 0.090680 0.105584 -0.074028 0.222590 0.025105 -0.002863 0.129672 -0.089089 0.101043 0.124775 0.122596 0.002245 -0.033943 0.034865 -0.012626 0.052450 0.152052 -0.076510 -0.021786 0.041205 0.021725 -0.256348 0.142094 0.085774 -0.009317 0.015444 0.005312 0.000358 -0.055864 -0.010213 0.028476 -0.037228 0.005583 -0.085910 -0.011456 0.080324 -0.007648 -0.039036 -0.082156 0.140681 0.047811 -0.249488 0.102900 -0.278324 0.081114 0.000926 0.061212 0.007594 -0.057331 -0.055633 -0.053585 0.023103 -0.054681 0.142604 -0.029016 0.106213 0.037483 -0.069611 -0.046427 0.130784 -0.041960 0.147985 -0.284869 -0.064087 0.163036 0.007653 0.030804 -0.050219 -0.043019 -0.115406
when 0.110426 0.028140 0.106875 -0.027072 -0.037040 0.099091 -0.100863 -0.109210 0.022196 -0.023976 -0.211286 -0.017768 -0.241766 -0.235441 0.033386 0.043344 -0.001430 -0.100890 0.116390 -0.126513 0.120104 0.079668 -0.086635 -0.095440 0.090293 0.070696 0.014105 -0.028193 -0.005634 -0.131326 0.142654 0.252165 0.105852 0.005659 0.148750 -0.115075 -0.067997 -0.251866 -0.053522 0.043905 0.207821 -0.098290 -0.073822 0.051522 0.055905 0.168600 -0.102577 -0.281319 0.020519 -0.248106 -0.108892 -0.120931 -0.065215 0.008868 0.034833 0.152513 -0.384542 -0.080543 0.089926 0.012899 0.151734 -0.282890 0.185804 0.081668 0.003153 -0.116540 0.231476 -0.171761 0.240559 0.062489 0.079928 0.014574 -0.049161 0.119718 -0.051389 -0.192941 -0.166589 0.019923 0.043408 0.017053 -0.088804 -0.103927 0.049309 -0.182585 0.064897 -0.010895 0.028578 0.051784 0.044021 0.138244 0.183969 -0.101340 -0.137707 -0.043579 -0.013095 0.042185 -0.048671 -0.007044 0.105265 -0.037528
because 0.224349 -0.005071 0.089078 0.117659 -0.136735 0.126380 -0.134147 -0.370860 0.210416 -0.102802 -0.200578 -0.151132 -0.244735 -0.262736 0.041804 0.156998 -0.097633 -0.177379 0.125962 -0.021167 0.227078 0.058234 -0.147801 -0.174855 -0.017396 -0.084494 -0.071306 -0.241748 -0.125677 -0.051909 0.190486 0.359496 0.049738 0.089332 0.185678 -0.133917 -0.052610 -0.130773 0.139934 0.178765 0.256718 -0.059073 -0.110977 0.125020 -0.019701 0.178172 -0.248675 -0.300879 0.011431 -0.281002 -0.050162 0.034735 -0.126566 -0.232769 -0.096395 0.195786 -0.414349 -0.052403 0.135708 -0.109722 0.100483 -0.276431 -0.023863 0.084087 0.115217 -0.182883 0.202395 -0.216433 0.227418 0.067035 0.087237 0.029605 -0.116571 0.154824 -0.111523 -0.138893 -0.209569 0.018588 0.188324 0.023714 -0.032078 -0.108091 0.168159 -0.284003 0.022818 -0.007942 -0.089340 0.042232 0.018520 0.151887 0.283128 -0.261474 -0.136777 -0.017987 -0.040942 0.027747 0.043171 0.019351 0.219791 0.015615
make 0.150265 0.075309 0.059363 0.100522 -0.139732 0.108111 -0.060940 -0.350061 0.094026 -0.091300 -0.162576 -0.058394 -0.028748 -0.165567 -0.042154 0.018408 -0.060074 -0.066035 0.039159 -0.106804 0.263413 0.168687 -0.245879 -0.052316 -0.134367 -0.081261 0.045313 -0.302028 -0.134849 -0.053561 0.197914 0.390632 -0.017491 0.362843 0.080205 -0.171817 0.013576 -0.091129 0.147597 0.215395 0.213064 -0.063215 -0.183470 0.092345 -0.087918 0.238815 -0.092036 -0.174378 0.042250 -0.064511 -0.027116 0.076232 -0.102078 -0.083162 -0.076356 0.142320 -0.280749 0.048304 0.076294 -0.056103 0.019753 -0.219315 -0.168917 0.107531 0.157854 -0.007679 0.109281 -0.201141 0.143771 0.219162 0.160499 -0.117934 -0.045686 0.013313 0.061469 -0.094399 -0.109662 0.014570 0.102269 -0.064658 -0.100048 -0.013962 0.110560 -0.212605 -0.042203 0.009691 -0.213973 -0.139607 0.026252 0.116974 0.118072 -0.081383 -0.332943 -0.176096 0.030910 -0.034563 0.133511 0.026234 0.160189 -0.036524
Please 0.106603 -0.004312 -0.085178 0.171589 -0.128816 0.008556 -0.122943 -0.165259 0.092126 -0.073120 0.022791 -0.080126 0.152120 0.035474 -0.044022 0.039536 -0.016819 0.052637 0.014780 -0.060393 0.135031 0.120394 -0.202408 -0.052232 -0.203049 -0.121776 0.051013 -0.203597 -0.176489 0.132581 0.110760 0.285824 -0.030008 0.452413 -0.035338 -0.062328 -0.041098 0.103073 0.185545 0.167724 0.134075 0.043483 -0.097288 0.118284 -0.132075 0.188812 0.042050 -0.024251 -0.008995 0.093523 0.086794 0.134660 -0.084836 -0.153219 -0.084908 0.060056 -0.100171 -0.003931 0.049664 -0.074161 0.093253 0.034375 -0.263210 0.098026 0.125862 0.088374 0.018471 -0.067254 -0.065049 0.232676 0.164918 -0.131600 0.049166 -0.203679 0.119608 0.084510 0.031238 0.033427 0.151098 -0.153361 -0.047081 -0.021979 0.011871 -0.057729 -0.142613 0.035606 -0.179441 -0.124454 0.009954 0.072355 0.054831 0.019563 -0.312012 -0.099560 0.072761 -0.123496 0.063465 0.008917 0.098533 -0.065944
had 0.061965 -0.011546 0.027912 0.049520 -0.067464 0.088556 -0.028370 -0.276717 0.178131 -0.074025 -0.128101 -0.106357 -0.110025 -0.283124 -0.070605 0.103860 -0.010392 -0.179477 0.083666 0.029530 0.200501 0.091575 -0.138605 -0.078625 -0.015713 -0.077534 -0.008874 -0.198019 -0.122422 -0.096565 0.184993 0.377474 0.036760 0.087752 0.194995 -0.141253 -0.016050 -0.024091 0.119351 0.136910 0.171587 -0.073979 -0.146612 0.094731 -0.013268 0.140641 -0.189725 -0.232963 0.062821 -0.203968 -0.121467 -0.019671 -0.119457 -0.065143 -0.059960 0.198742 -0.281195 -0.020510 0.088572 -0.057823 0.097730 -0.264522 0.005943 0.114868 0.045928 -0.094905 0.140735 -0.225131 0.183064 0.116543 0.039784 -0.016385 -0.043644 0.081065 -0.092012 -0.172194 -0.157343 -0.004535 0.131700 -0.036739 -0.045748 -0.053753 0.091780 -0.192099 0.107150 0.145875 -0.102275 -0.039945 0.021766 0.130031 0.154893 -0.165354 -0.192699 -0.075521 -0.078696 -0.002652 0.082279 0.005202 0.165206 0.026210
after 0.083807 -0.049306 0.003498 0.131814 -0.031228 0.063358 -0.120930 -0.071968 0.075214 -0.102324 -0.048864 0.011872 -0.068459 -0.146429 0.012066 0.031268 -0.052880 -0.087062 0.142533 -0.053128 0.055858 0.025977 0.055024 -0.056056 0.019471 -0.096326 0.022451 -0.012826 -0.103562 0.010978 0.115428 0.285331 0.100308 0.072995 0.094586 -0.065396 0.039630 0.085102 0.122198 0.219460 0.125464 0.009336 -0.124573 0.218390 0.058577 0.215536 -0.086295 -0.080109 -0.090820 -0.161384 0.036113 -0.075589 -0.004881 -0.169270 -0.135335 0.126324 -0.255863 -0.062119 -0.033843 -0.133365 0.095046 -0.078150 -0.007608 -0.022365 0.054283 -0.051314 0.023955 -0.089907 0.051709 0.139115 0.134258 0.028897 -0.067846 -0.032965 0.009627 -0.120582 0.014360 0.111347 0.072203 0.036015 -0.045551 -0.051296 -0.166698 -0.184120 -0.041260 0.057523 -0.061903 0.167636 0.058521 0.078465 0.035893 -0.166049 -0.260405 -0.059800 -0.013851 -0.068567 0.000211 0.018816 0.160046 0.003635
could 0.195365 0.027798 -0.041945 0.117271 -0.114784 0.017854 -0.086427 -0.258524 0.248411 -0.092428 -0.123034 -0.036095 -0.045158 -0.094963 -0.022218 0.083053 -0.069705 -0.154202 0.094905 0.039831 0.163857 0.117076 -0.101027 -0.052582 0.011379 -0.268267 0.015089 -0.135211 -0.067231 0.029478 0.229726 0.354471 -0.001016 0.353923 -0.006947 -0.097023 0.012158 0.235863 0.257311 0.257655 0.159409 -0.114687 -0.055460 0.166095 -0.108799 0.290596 -0.065182 -0.095341 -0.091523 -0.005998 0.057136 0.082936 -0.108633 -0.220798 -0.276890 0.093240 -0.168162 -0.102053 0.153593 -0.107208 0.084709 -0.177149 -0.220173 0.120630 0.250907 0.071947 0.070815 -0.178268 0.001372 0.172981 0.132443 0.043308 -0.037435 -0.046353 0.031598 -0.003735 -0.027842 0.022638 0.086018 -0.051234 -0.014649 0.003259 -0.008333 -0.250085 -0.098877 -0.019983 -0.164675 -0.012804 0.110953 0.111963 0.096432 -0.149999 -0.177292 -0.051598 -0.040996 -0.132292 0.207589 0.067030 0.112064 0.066834
made -0.078300 -0.114758 0.100116 0.000140 0.057073 0.025550 -0.064348 -0.038416 0.128139 -0.098614 -0.177180 -0.090906 -0.076789 -0.174580 -0.113809 0.158556 0.056215 -0.081303 0.161893 -0.075625 0.167900 0.080694 -0.048834 -0.130014 0.028333 0.111695 -0.026820 -0.111192 -0.189409 -0.174582 0.246721 0.247071 0.035532 0.123068 0.239810 -0.067643 -0.015855 -0.105268 0.070940 0.141581 0.209265 -0.109452 -0.090608 0.100720 0.125090 0.088823 -0.133531 -0.286378 0.083787 -0.119409 -0.046533 -0.151800 -0.035511 -0.010453 -0.007084 0.135466 -0.234855 -0.052735 0.050610 -0.047680 0.211563 -0.233366 0.157180 0.022780 -0.089533 -0.016757 0.216362 -0.148686 0.151035 0.155431 -0.002793 -0.165322 0.061812 -0.011629 -0.096761 -0.242146 -0.101508 0.013494 0.043409 -0.041021 -0.058191 -0.030260 0.051810 -0.078937 0.065593 0.187680 0.051886 -0.040582 -0.047853 0.144123 0.181292 -0.053497 -0.271544 -0.125760 0.013844 0.058320 0.054066 -0.087547 0.107001 -0.017853
please -0.101869 -0.067761 -0.054652 0.115593 0.028843 -0.048190 -0.025808 0.088011 0.129666 -0.175339 0.067445 -0.029029 0.227458 0.100467 -0.053187 0.082124 -0.061677 0.067031 0.032691 -0.047952 -0.008647 0.021998 0.044982 0.029083 -0.046883 -0.080727 -0.017451 0.035347 -0.093134 0.015194 0.039136 0.152492 0.003555 0.370320 -0.103590 -0.008831 0.138253 0.251372 0.081879 0.188131 0.034282 0.012489 0.059264 0.127921 -0.141591 0.098539 0.053873 0.141469 -0.001886 0.161524 0.090536 0.070424 0.047698 0.027119 -0.227113 -0.042187 0.124900 -0.110748 -0.011315 -0.080419 0.130855 0.000915 -0.204786 -0.007682 0.050747 0.143798 -0.130121 0.063299 -0.036377 0.215527 0.140977 -0.089817 0.031826 -0.285643 0.171754 0.071025 0.153270 0.041010 0.030897 -0.072954 -0.030540 0.144308 -0.103328 -0.016438 -0.064451 0.124431 -0.003872 0.015044 -0.053038 0.044507 -0.097497 -0.008607 -0.230424 -0.136277 0.106400 -0.100425 0.151983 -0.057669 0.046998 0.046067
does 0.445582 0.095352 0.096298 0.060883 -0.127101 0.198509 -0.282354 -0.398911 0.091616 0.102592 -0.284835 -0.123983 -0.348009 -0.264947 0.155852 -0.015115 -0.067820 0.023658 0.062583 -0.182187 0.317986 0.245243 -0.362791 -0.142042 -0.050299 -0.038195 0.079983 -0.376657 -0.009396 0.025801 0.050243 0.413752 0.123593 0.153164 0.134860 -0.126460 -0.212432 -0.313808 0.077259 0.230183 0.255215 -0.050629 -0.300627 0.031194 0.105654 0.354492 -0.069837 -0.342120 -0.084416 -0.329692 0.032744 0.052283 -0.244688 -0.309471 0.100159 0.188949 -0.515823 0.030983 0.123772 0.036490 0.088817 -0.202733 0.121574 0.120010 0.205686 -0.104827 0.306155 -0.285206 0.170572 0.222034 0.326115 0.052385 -0.054109 0.263046 0.013660 -0.181814 -0.208173 0.003917 0.248885 0.076847 -0.142712 -0.297096 0.083891 -0.362944 -0.237135 -0.225201 -0.204746 -0.017668 0.165018 0.324651 0.363275 -0.043216 -0.319573 -0.064224 -0.072793 -0.037008 -0.139190 0.106704 0.147892 -0.112501
even 0.199549 0.006155 -0.011356 0.067047 -0.089926 0.041698 -0.042649 -0.179590 0.068338 -0.012469 -0.127104 -0.069418 -0.118185 -0.157061 0.009041 0.035728 -0.010055 -0.016189 0.065979 -0.010530 0.175638 0.085576 -0.214538 -0.056619 -0.021228 -0.044571 0.035030 -0.156743 -0.097223 0.040844 0.150408 0.287252 0.038134 0.119091 0.063874 -0.104735 -0.101834 -0.104854 0.067821 0.065824 0.171135 -0.059602 -0.103607 0.096464 -0.012567 0.225392 0.011209 -0.182425 -0.024707 -0.136864 0.025859 0.004077 -0.106123 -0.111530 -0.032379 0.146453 -0.248032 -0.015473 0.071909 -0.034440 0.078569 -0.086178 0.004971 0.121648 0.108728 -0.093665 0.197921 -0.199004 0.066421 0.144851 0.169039 -0.002013 -0.034264 0.039221 0.017186 -0.059103 -0.128215 0.030661 0.097850 -0.043703 -0.050936 -0.127386 0.041369 -0.133419 -0.041339 -0.054380 -0.127735 -0.008395 0.075334 0.152678 0.204240 -0.023961 -0.130160 0.012948 0.000303 -0.006875 -0.070450 0.060076 0.082173 -0.108453
how 0.189461 0.039949 -0.024908 0.066377 -0.128058 0.028123 -0.108039 -0.286485 0.129627 -0.036844 -0.121244 -0.108530 0.006208 -0.096563 -0.002740 -0.001555 -0.012060 -0.095361 0.036393 -0.042170 0.215884 0.153267 -0.185898 -0.060198 -0.055412 -0.189391 0.077969 -0.214232 -0.084274 -0.012649 0.199555 0.344855 0.000054 0.427324 -0.016721 -0.159450 -0.074486 0.061245 0.163587 0.193868 0.090827 -0.070366 -0.127259 0.111123 -0.124640 0.238305 -0.072729 -0.162796 0.000130 0.010924 -0.002054 0.097133 -0.168448 -0.128611 -0.104431 0.091994 -0.205234 -0.023480 0.173633 -0.023662 0.046823 -0.167452 -0.239508 0.178093 0.200097 0.111451 0.136972 -0.163857 0.057529 0.189669 0.123576 -0.007232 0.003440 0.029612 0.049753 0.012204 -0.053281 0.008741 0.115110 -0.108199 -0.072095 0.019748 0.044607 -0.148112 -0.078966 0.002280 -0.186715 -0.121305 0.086733 0.116493 0.102199 -0.078913 -0.239706 -0.084039 -0.056847 -0.122267 0.172468 0.061327 0.097571 0.049064
information 0.054856 0.046546 0.120521 -0.126118 0.005580 0.109243 -0.151727 0.001905 -0.040276 -0.027387 -0.276306 0.057926 -0.282344 -0.234866 -0.016995 0.070895 0.078759 -0.079139 0.144359 -0.216183 0.087113 0.044022 0.025682 -0.121545 0.105681 0.253384 0.057783 -0.017119 -0.045601 -0.202935 0.173040 0.222512 0.109380 0.014985 0.166105 -0.106534 -0.010578 -0.274904 -0.089009 0.140933 0.232520 -0.017124 -0.118084 0.043591 0.158439 0.130325 -0.113525 -0.295106 0.019189 -0.293346 -0.122558 -0.238500 0.017419 0.032987 0.037195 0.145024 -0.385044 -0.037403 0.034019 0.054297 0.128653 -0.306422 0.333475 -0.038259 -0.062716 -0.078158 0.247640 -0.186119 0.249573 0.094978 0.093726 -0.094619 -0.040337 0.100113 -0.066202 -0.271565 -0.166189 0.027369 0.048525 0.117516 -0.101312 -0.082958 0.047358 -0.119178 0.063780 0.007638 0.088712 0.036981 0.030064 0.189025 0.203250 -0.044663 -0.214852 -0.071555 0.019694 0.089494 -0.020552 -0.040117 0.086790 -0.034763
it's 0.064477 -0.006858 0.046975 -0.000762 0.016263 0.038745 0.033168 -0.149444 0.085214 -0.049651 -0.080438 -0.076966 -0.075870 -0.120973 0.016440 0.072113 -0.035908 -0.037226 -0.009112 0.092853 0.067735 0.012382 -0.124652 -0.033850 -0.015602 -0.074352 -0.058838 -0.151513 -0.055938 -0.017479 0.012371 0.117103 0.004129 -0.042044 0.071105 -0.032202 -0.071094 -0.044479 0.034228 -0.018122 0.059852 -0.093786 -0.099999 -0.012521 -0.016241 0.059300 -0.037954 -0.124365 0.049631 -0.117060 -0.036545 0.057755 -0.077388 -0.073593 0.007146 0.054299 -0.053158 0.015544 0.104965 0.027505 0.054478 -0.108403 -0.006702 0.051302 0.053925 -0.104446 0.077300 -0.115148 0.134105 0.018054 0.038342 0.037986 -0.016961 0.080396 -0.030759 -0.010350 -0.098985 -0.054117 0.064269 -0.061530 0.005586 -0.111578 0.091283 -0.092555 0.032463 -0.042243 -0.054637 -0.054185 0.007137 0.108910 0.149895 -0.054809 -0.012054 0.013366 -0.010894 0.015700 -0.004551 -0.020425 0.077061 -0.054349
such 0.227941 0.067891 0.054131 -0.043750 -0.229450 0.076770 -0.000337 -0.139683 -0.140480 0.120483 -0.275824 0.114416 -0.271682 -0.195798 -0.132073 -0.030877 0.134969 -0.015938 0.120739 -0.118580 0.185426 0.076221 -0.279783 -0.081230 -0.031339 0.179561 0.075294 -0.094152 -0.181419 0.011119 0.250602 0.228785 0.028690 -0.013067 0.232588 -0.165729 -0.247823 -0.463230 0.037501 -0.084734 0.461176 -0.114292 -0.069357 0.063001 0.112259 0.327863 0.134127 -0.353569 -0.089066 -0.280593 -0.058153 -0.223480 -0.070719 -0.049701 0.132071 0.245291 -0.463555 0.045010 -0.041927 0.049988 0.034748 -0.068808 0.294318 0.086120 -0.054943 -0.230849 0.441964 -0.339340 0.132813 0.129210 0.113217 -0.129266 0.002984 0.067245 -0.082892 -0.152983 -0.289177 0.049115 -0.007735 0.018247 -0.113293 -0.258272 0.087544 -0.020823 0.011414 -0.104612 -0.043704 0.073518 0.115401 0.121346 0.241666 0.116277 -0.103936 0.035468 0.056889 0.167769 -0.326208 0.006677 0.061029 -0.366174
want 0.014859 -0.021900 -0.072478 0.233583 -0.206203 -0.021957 -0.050034 -0.241986 0.144003 -0.236019 -0.038031 -0.092243 0.273940 0.029053 -0.122894 0.092316 -0.065325 -0.090184 0.152777 -0.139065 0.152846 0.129855 -0.148253 -0.020950 -0.183237 -0.262016 -0.014148 -0.136147 -0.270465 0.020018 0.327472 0.448114 -0.026818 0.716724 -0.012395 -0.140944 0.118026 0.202542 0.260628 0.264682 0.247427 -0.120004 -0.038492 0.294973 -0.224414 0.280495 -0.001847 -0.031499 0.038581 0.151746 0.131885 0.194771 -0.030769 -0.063232 -0.247454 0.082109 -0.170159 -0.126937 0.059982 -0.174960 0.136080 -0.143950 -0.498393 0.123304 0.173602 0.181403 0.021140 -0.076175 -0.058483 0.354018 0.225802 -0.246543 0.028072 -0.309639 0.142808 0.018936 0.058965 0.073630 0.099536 -0.195481 -0.082368 0.114795 0.007835 -0.115432 -0.118745 0.137019 -0.216278 -0.153487 -0.029188 -0.001145 -0.041786 -0.129249 -0.432968 -0.226100 0.182091 -0.055025 0.236117 -0.005411 0.165216 -0.072192
did 0.272273 0.030712 -0.031576 0.130002 -0.121633 0.093110 -0.219124 -0.233341 0.161054 -0.023449 -0.142604 -0.101736 -0.101905 -0.130609 0.078499 0.048981 -0.081918 0.034569 0.124459 -0.128915 0.176820 0.204545 -0.220450 -0.087454 -0.026228 -0.155810 0.030580 -0.172522 -0.088674 0.068404 0.088654 0.437590 0.133130 0.320251 0.042374 -0.082756 -0.094890 -0.079170 0.119703 0.199377 0.287798 -0.103594 -0.095115 0.173086 -0.036115 0.371644 0.033202 -0.204992 -0.101492 -0.155445 0.130719 0.080949 -0.154956 -0.196443 -0.044894 0.161071 -0.385565 -0.106407 0.107299 -0.067238 0.196602 -0.163870 -0.062883 0.173708 0.160234 -0.011674 0.182681 -0.177636 0.024532 0.288301 0.333500 -0.002196 -0.029537 -0.036547 0.105421 -0.109823 -0.023579 0.049514 0.179632 0.001742 -0.097100 -0.181413 -0.036538 -0.293989 -0.217781 -0.129973 -0.177612 0.084016 0.115673 0.251553 0.220149 -0.071617 -0.291185 -0.041395 0.038839 -0.077987 -0.100812 0.070791 0.101954 -0.129149
its -0.089632 -0.043612 0.088179 -0.048117 0.044151 0.008999 -0.107049 0.175992 -0.150325 -0.039951 -0.117770 0.035608 -0.109475 -0.087319 -0.053594 0.018990 0.143764 0.038896 0.172679 -0.255482 0.061087 0.072843 0.018234 -0.148995 0.021479 0.282954 0.017287 0.103503 -0.102562 -0.165751 0.172242 0.122948 0.141391 -0.037006 0.203854 -0.037439 -0.022553 -0.318044 -0.120271 0.020841 0.204362 0.006334 -0.025954 0.045917 0.187249 0.058953 0.007499 -0.283827 -0.003675 -0.183983 -0.012012 -0.270467 0.105858 0.125292 0.140019 0.086190 -0.288977 -0.038069 -0.041783 -0.009323 0.149950 -0.100993 0.304070 -0.071849 -0.189723 -0.028137 0.281609 -0.039088 0.130796 0.129128 0.052746 -0.198706 0.033390 -0.045673 -0.075436 -0.233798 -0.086800 0.043309 0.027304 0.037114 -0.096354 -0.059430 -0.029404 0.043171 0.086753 0.103522 0.088885 0.078044 -0.029476 0.079785 0.085323 0.029813 -0.222688 -0.043287 0.124403 0.099675 -0.190854 -0.060033 0.055632 -0.179109
